{"learner":{"attributes":{"scikit_learn":"{\"_estimator_type\": \"classifier\"}"},"feature_names":["DAYS_BIRTH","AMT_INCOME_TOTAL","AMT_CREDIT","EXT_SOURCE_1","EXT_SOURCE_2","EXT_SOURCE_3","CODE_GENDER_F","CODE_GENDER_M","NAME_EDUCATION_TYPE_Higher education","NAME_EDUCATION_TYPE_Incomplete higher","NAME_EDUCATION_TYPE_Secondary","ZIP_CODE_10001","ZIP_CODE_10002","ZIP_CODE_10003"],"feature_types":["int","float","float","float","float","float","i","i","i","i","i","i","i","i"],"gradient_booster":{"model":{"cats":{"enc":[],"feature_segments":[],"sorted_idx":[]},"gbtree_model_param":{"num_parallel_tree":"1","num_trees":"100"},"iteration_indptr":[0,1,2,3,4,5,6,7,8,9,10,11,12,13,14,15,16,17,18,19,20,21,22,23,24,25,26,27,28,29,30,31,32,33,34,35,36,37,38,39,40,41,42,43,44,45,46,47,48,49,50,51,52,53,54,55,56,57,58,59,60,61,62,63,64,65,66,67,68,69,70,71,72,73,74,75,76,77,78,79,80,81,82,83,84,85,86,87,88,89,90,91,92,93,94,95,96,97,98,99,100],"tree_info":[0,0,0,0,0,0,0,0,0,0,0,0,0,0,0,0,0,0,0,0,0,0,0,0,0,0,0,0,0,0,0,0,0,0,0,0,0,0,0,0,0,0,0,0,0,0,0,0,0,0,0,0,0,0,0,0,0,0,0,0,0,0,0,0,0,0,0,0,0,0,0,0,0,0,0,0,0,0,0,0,0,0,0,0,0,0,0,0,0,0,0,0,0,0,0,0,0,0,0,0],"trees":[{"base_weights":[1.0155366E-7,4.5844823E-1,-5.0303173E-1,9.989085E-1,-5.9803944E-2,1.3450348E-1,-8.303081E-1,1.6718742E0,8.3002853E-1,3.587127E-1,-2.7022788E-1,5.6179523E-1,-4.0912293E-2,-5.5344933E-1,-9.387569E-1,1.7943884E0,2.621004E-1,1.4882008E0,6.460204E-1,6.972537E-1,-1.7267527E-1,2.715378E-2,-3.9389756E-1,1.9592535E0,3.4300062E-1,8.870964E-1,-1.6114512E-1,-1.4557843E-1,-8.474904E-1,-8.555233E-1,-3.6263174E-1,1.4844294E0,2.549514E0,2.4811351E-1,-2.0183118E-1,7.5453836E-1,1.1274602E0,8.6688375E-1,1.5775134E-1,1.0710698E0,2.8844839E-2,-6.294168E-1,3.220503E-1,3.6693525E-1,-6.206367E-1,-1.597217E-1,-6.5720546E-1,8.815616E-2,7.222534E-1,4.5566887E-1,-2.5865424E-1,-1.573007E-1,1.3105662E0,-7.071045E-1,2.4379566E-2,-3.5172382E-1,8.399948E-1,-4.7124383E-1,-1.105161E0,-5.512734E-1,-9.6202046E-1,5.273298E-1,-6.3416045E-3,8.815616E-2,8.5486174E-1,1.3227578E-1,3.9641288E-1,2.0519708E-1,4.1412827E-1,1.8204992E-1,-9.884362E-2,-1.8237257E-1,3.7973794E-1,1.8942393E-1,-1.2493768E-1,1.5000446E-2,-3.4148276E-1,2.0270528E-1,-2.1127988E-1,2.3696984E-1,-3.5802066E-2,-2.5660694E-1,1.811803E-1,1.5050587E-1,-8.703824E-2,-2.2637035E-1,3.3553752E-1,7.015713E-2,5.25392E-1,5.182022E-1,-2.0183118E-1,-9.964689E-2,-3.1695262E-1,5.6192383E-2,-1.6882008E-1,7.7941924E-2,-1.7235614E-1,-1.573007E-1,5.413282E-1,-3.391763E-1,1.3331475E-2,-1.2536564E-1,-3.4168836E-1,-1.9787842E-1,2.5246615E-2,-3.1754145E-1,-1.8219486E-1],"categories":[],"categories_nodes":[],"categories_segments":[],"categories_sizes":[],"default_left":[0,0,0,0,0,0,0,0,0,0,0,0,0,0,0,0,0,0,0,0,0,0,0,0,0,0,0,0,0,0,0,0,0,0,0,0,0,0,0,0,0,0,0,0,0,0,0,0,0,0,0,0,0,0,0,0,0,0,0,0,0,0,0,0,0,0,0,0,0,0,0,0,0,0,0,0,0,0,0,0,0,0,0,0,0,0,0,0,0,0,0,0,0,0,0,0,0,0,0,0,0,0,0,0,0,0,0],"id":0,"left_children":[1,3,5,7,9,11,13,15,17,19,21,23,25,27,29,31,33,35,37,39,41,43,45,47,49,51,53,55,57,59,-1,61,63,-1,-1,-1,65,67,69,71,73,75,77,79,81,83,85,-1,-1,87,-1,-1,89,91,93,95,97,99,101,103,105,-1,-1,-1,-1,-1,-1,-1,-1,-1,-1,-1,-1,-1,-1,-1,-1,-1,-1,-1,-1,-1,-1,-1,-1,-1,-1,-1,-1,-1,-1,-1,-1,-1,-1,-1,-1,-1,-1,-1,-1,-1,-1,-1,-1,-1,-1],"loss_changes":[1.6482074E2,1.0479342E2,7.121582E1,1.9421219E1,1.699031E1,8.751946E0,6.2457886E0,5.7033615E0,1.7005318E1,1.1743309E1,4.7261686E0,9.712243E0,9.459136E0,7.77479E0,2.5722656E0,3.8727112E0,2.6843247E0,8.887779E0,1.25566635E1,9.879677E0,6.0651994E0,8.7228E0,5.4828453E0,2.566328E0,4.5448174E0,6.503158E0,7.590091E0,6.1458583E0,3.1690865E0,3.5548553E0,0E0,1.0567421E1,4.6626587E0,0E0,0E0,0E0,2.7765427E0,6.6469955E0,8.488845E0,9.076973E0,4.3560224E0,4.837875E0,5.2361755E0,5.4304852E0,4.4401536E0,4.396513E0,8.163261E0,0E0,0E0,7.8146987E0,0E0,0E0,7.5853853E0,2.137682E0,5.535787E0,3.4899323E0,7.888604E0,5.9032087E0,3.154373E-2,2.466752E0,2.506279E0,0E0,0E0,0E0,0E0,0E0,0E0,0E0,0E0,0E0,0E0,0E0,0E0,0E0,0E0,0E0,0E0,0E0,0E0,0E0,0E0,0E0,0E0,0E0,0E0,0E0,0E0,0E0,0E0,0E0,0E0,0E0,0E0,0E0,0E0,0E0,0E0,0E0,0E0,0E0,0E0,0E0,0E0,0E0,0E0,0E0,0E0],"parents":[2147483647,0,0,1,1,2,2,3,3,4,4,5,5,6,6,7,7,8,8,9,9,10,10,11,11,12,12,13,13,14,14,15,15,16,16,17,17,18,18,19,19,20,20,21,21,22,22,23,23,24,24,25,25,26,26,27,27,28,28,29,29,31,31,32,32,36,36,37,37,38,38,39,39,40,40,41,41,42,42,43,43,44,44,45,45,46,46,49,49,52,52,53,53,54,54,55,55,56,56,57,57,58,58,59,59,60,60],"right_children":[2,4,6,8,10,12,14,16,18,20,22,24,26,28,30,32,34,36,38,40,42,44,46,48,50,52,54,56,58,60,-1,62,64,-1,-1,-1,66,68,70,72,74,76,78,80,82,84,86,-1,-1,88,-1,-1,90,92,94,96,98,100,102,104,106,-1,-1,-1,-1,-1,-1,-1,-1,-1,-1,-1,-1,-1,-1,-1,-1,-1,-1,-1,-1,-1,-1,-1,-1,-1,-1,-1,-1,-1,-1,-1,-1,-1,-1,-1,-1,-1,-1,-1,-1,-1,-1,-1,-1,-1,-1],"split_conditions":[5.2039635E-1,4.9447122E-1,3.1680036E-1,9.687289E-2,1.5760387E-1,-2.0755E4,-2.0267E4,4.9262753E-1,1.2183505E5,8.0047977E-1,-2.0122E4,8.8127E4,3.1493053E-2,6.121162E-1,7.432472E5,7.515602E5,3.9418377E-2,1.2014323E-1,3.4215656E-1,-1.4369E4,1.7269881E5,1.9216181E5,7.4775535E-1,1E0,8.9865525E5,3.1383844E5,-1.7212E4,-2.0956E4,7.390953E-1,6.536514E-1,-3.6263174E-1,2.1751745E5,6.838248E-2,2.4811351E-1,-2.0183118E-1,7.5453836E-1,1.9699545E-1,-1.1742E4,2.9396218E-1,1.0445345E-1,6.838248E-2,1.2964127E5,1E0,1E0,9.208392E-1,1.163975E5,4.96234E-1,8.815616E-2,7.222534E-1,2.1594633E5,-2.5865424E-1,-1.573007E-1,2.3479202E5,1E0,1E0,-2.4279E4,4.1521865E-1,1E0,1.4767106E5,6.249208E5,1.9766166E5,5.273298E-1,-6.3416045E-3,8.815616E-2,8.5486174E-1,1.3227578E-1,3.9641288E-1,2.0519708E-1,4.1412827E-1,1.8204992E-1,-9.884362E-2,-1.8237257E-1,3.7973794E-1,1.8942393E-1,-1.2493768E-1,1.5000446E-2,-3.4148276E-1,2.0270528E-1,-2.1127988E-1,2.3696984E-1,-3.5802066E-2,-2.5660694E-1,1.811803E-1,1.5050587E-1,-8.703824E-2,-2.2637035E-1,3.3553752E-1,7.015713E-2,5.25392E-1,5.182022E-1,-2.0183118E-1,-9.964689E-2,-3.1695262E-1,5.6192383E-2,-1.6882008E-1,7.7941924E-2,-1.7235614E-1,-1.573007E-1,5.413282E-1,-3.391763E-1,1.3331475E-2,-1.2536564E-1,-3.4168836E-1,-1.9787842E-1,2.5246615E-2,-3.1754145E-1,-1.8219486E-1],"split_indices":[4,5,5,5,4,0,0,4,1,5,0,1,5,5,2,2,5,4,4,0,1,1,5,11,2,2,0,0,4,4,0,1,4,0,0,0,5,0,5,3,4,1,8,10,3,1,4,0,0,1,0,0,1,10,9,0,5,6,2,2,1,0,0,0,0,0,0,0,0,0,0,0,0,0,0,0,0,0,0,0,0,0,0,0,0,0,0,0,0,0,0,0,0,0,0,0,0,0,0,0,0,0,0,0,0,0,0],"split_type":[0,0,0,0,0,0,0,0,0,0,0,0,0,0,0,0,0,0,0,0,0,0,0,0,0,0,0,0,0,0,0,0,0,0,0,0,0,0,0,0,0,0,0,0,0,0,0,0,0,0,0,0,0,0,0,0,0,0,0,0,0,0,0,0,0,0,0,0,0,0,0,0,0,0,0,0,0,0,0,0,0,0,0,0,0,0,0,0,0,0,0,0,0,0,0,0,0,0,0,0,0,0,0,0,0,0,0],"sum_hessian":[7.127039E2,3.7292233E2,3.3978162E2,1.8209586E2,1.9082648E2,1.1545804E2,2.2432356E2,3.4744316E1,1.4735155E2,6.3608826E1,1.2721765E2,3.296256E1,8.249548E1,6.485606E1,1.5946751E2,3.1715326E1,3.0289917E0,3.0646269E1,1.1670527E2,3.866419E1,2.4944637E1,3.7595135E1,8.962252E1,3.3853438E0,2.9577213E1,8.730623E0,7.3764854E1,2.7795454E1,3.7060604E1,1.25079544E2,3.4387966E1,2.4588285E1,7.1270394E0,1.9599359E0,1.0690559E0,6.4143353E0,2.4231934E1,7.9822845E1,3.6882427E1,2.441011E1,1.4254079E1,1.28286705E1,1.2115967E1,2.4944637E1,1.2650495E1,4.828569E1,4.133683E1,1.0690559E0,2.3162878E0,2.7617277E1,1.9599359E0,1.9599359E0,6.7706876E0,1.7995775E1,5.5769085E1,2.351923E1,4.2762237E0,1.6214014E1,2.084659E1,3.4031612E1,9.104793E1,2.0668415E1,3.9198718E0,1.0690559E0,6.0579834E0,6.0579834E0,1.817395E1,6.0579834E1,1.9243006E1,1.906483E1,1.7817598E1,2.3162878E0,2.2093822E1,5.8798075E0,8.374271E0,5.8798075E0,6.9488635E0,9.265151E0,2.8508158E0,1.3006847E1,1.1937791E1,1.0868735E1,1.7817599E0,7.4833913E0,4.08023E1,3.9733246E1,1.6035838E0,2.4588285E1,3.0289917E0,5.7016315E0,1.0690559E0,9.621503E0,8.374271E0,4.4187645E1,1.1581439E1,6.2361593E0,1.7283072E1,1.9599359E0,2.3162878E0,6.5925117E0,9.621503E0,1.6035838E0,1.9243006E1,2.9042686E1,4.988928E0,7.002316E1,2.1024767E1],"tree_param":{"num_deleted":"0","num_feature":"14","num_nodes":"107","size_leaf_vector":"1"}},{"base_weights":[-1.630044E-2,2.9061165E-1,-4.0529063E-1,6.024956E-1,-5.3976115E-2,8.774966E-2,-7.006278E-1,8.37736E-1,4.026992E-1,1.82291E-1,-2.542829E-1,3.8008845E-1,-5.3388756E-2,-4.5141864E-1,-8.0518866E-1,1.4399605E0,7.2402674E-1,8.3325857E-1,2.2582528E-1,6.12151E-1,-3.401969E-2,-4.5892218E-1,-8.065395E-2,4.92184E-1,-2.7461135E-1,3.491375E-1,-1.4622839E-1,-1.0679054E-1,-7.2658724E-1,-7.206375E-1,-1.0983486E0,5.359955E-1,-1.2080099E-1,5.7777417E-1,1.296839E0,1.7149827E0,5.978529E-1,3.667533E-1,-5.9419864E-1,-3.6485878E-1,8.560157E-1,2.787528E-1,-2.415149E-1,-1.04865044E-1,-6.380976E-1,9.414052E-1,-2.4655437E-1,1.19206265E-1,1.2050748E0,8.9476967E-1,-2.9384583E-1,2.1874298E-1,-2.9823443E-1,-6.984314E-1,1.00993104E-1,-3.860731E-1,-9.874369E-1,-8.351446E-1,-4.0964648E-1,-3.480005E-1,-6.362077E-1,-2.3168911E-1,1.9297083E-1,8.304083E-2,3.020653E-1,1.1439916E-1,5.768156E-1,6.045376E-1,1.6831073E-1,-6.330727E-2,2.6377988E-1,2.6081067E-1,3.453781E-2,-5.6681525E-2,-3.2333326E-1,-2.3697369E-1,8.905298E-2,8.255204E-2,4.0490696E-1,2.7100489E-2,3.128962E-1,1.04554035E-2,-1.9767776E-1,-1.738441E-1,1.1024027E-1,-6.097295E-2,-2.3669209E-1,4.397354E-1,4.5422062E-2,-3.8649637E-2,-2.8533775E-1,2.1486603E-1,-8.226733E-2,4.6291724E-1,1.9779425E-2,-9.326678E-2,3.4550545E-1,1.6606136E-1,-2.6593402E-1,-9.594617E-2,2.7948314E-1,2.5658797E-2,-1.4441755E-1,3.611537E-2,-2.679861E-1,-1.4513396E-1,1.4751531E-1,-3.075225E-1,9.633323E-3,-1.0745281E-1,-3.066914E-1,-7.849073E-2,-2.7271444E-1,1.2986831E-1,-1.5749453E-1,-2.70077E-2,-2.6564547E-1],"categories":[],"categories_nodes":[],"categories_segments":[],"categories_sizes":[],"default_left":[0,0,0,0,0,0,0,0,0,0,0,0,0,0,0,0,0,0,0,0,0,0,0,0,0,0,0,0,0,0,0,0,0,0,0,0,0,0,0,0,0,0,0,0,0,0,0,0,0,0,0,0,0,0,0,0,0,0,0,0,0,0,0,0,0,0,0,0,0,0,0,0,0,0,0,0,0,0,0,0,0,0,0,0,0,0,0,0,0,0,0,0,0,0,0,0,0,0,0,0,0,0,0,0,0,0,0,0,0,0,0,0,0,0,0,0,0],"id":1,"left_children":[1,3,5,7,9,11,13,15,17,19,21,23,25,27,29,31,33,35,37,39,41,43,45,47,-1,49,51,53,55,57,59,-1,61,63,65,67,69,71,73,75,77,79,81,83,85,87,89,91,93,95,97,99,101,103,105,107,109,111,113,-1,115,-1,-1,-1,-1,-1,-1,-1,-1,-1,-1,-1,-1,-1,-1,-1,-1,-1,-1,-1,-1,-1,-1,-1,-1,-1,-1,-1,-1,-1,-1,-1,-1,-1,-1,-1,-1,-1,-1,-1,-1,-1,-1,-1,-1,-1,-1,-1,-1,-1,-1,-1,-1,-1,-1,-1,-1],"loss_changes":[8.475794E1,4.268505E1,4.5651505E1,9.457703E0,9.013137E0,4.896286E0,4.741539E0,5.4482956E0,8.540504E0,8.158135E0,3.6211185E0,6.0559826E0,3.0621955E0,5.6293755E0,2.5976868E0,7.814728E0,6.0988045E0,5.8248672E0,9.765249E0,7.3048506E0,3.907069E0,2.9174938E0,9.881928E0,9.475585E0,0E0,5.664471E0,3.7367182E0,3.4991946E0,2.5757027E0,3.5406227E0,7.972717E-2,0E0,2.2335472E0,8.364126E0,8.333088E0,1.0927639E0,6.464361E0,8.894243E0,2.245566E0,2.080493E0,6.448908E0,3.37041E0,4.187911E0,4.0249114E0,1.8761482E0,3.1564536E0,4.004387E0,6.035775E0,4.6402397E0,3.0144496E0,4.417809E0,7.990048E0,3.3548708E0,1.2843068E0,5.153715E0,4.330365E0,3.3338547E-2,3.0989952E0,3.269308E0,0E0,6.8173885E-1,0E0,0E0,0E0,0E0,0E0,0E0,0E0,0E0,0E0,0E0,0E0,0E0,0E0,0E0,0E0,0E0,0E0,0E0,0E0,0E0,0E0,0E0,0E0,0E0,0E0,0E0,0E0,0E0,0E0,0E0,0E0,0E0,0E0,0E0,0E0,0E0,0E0,0E0,0E0,0E0,0E0,0E0,0E0,0E0,0E0,0E0,0E0,0E0,0E0,0E0,0E0,0E0,0E0,0E0,0E0,0E0],"parents":[2147483647,0,0,1,1,2,2,3,3,4,4,5,5,6,6,7,7,8,8,9,9,10,10,11,11,12,12,13,13,14,14,15,15,16,16,17,17,18,18,19,19,20,20,21,21,22,22,23,23,25,25,26,26,27,27,28,28,29,29,30,30,32,32,33,33,34,34,35,35,36,36,37,37,38,38,39,39,40,40,41,41,42,42,43,43,44,44,45,45,46,46,47,47,48,48,49,49,50,50,51,51,52,52,53,53,54,54,55,55,56,56,57,57,58,58,60,60],"right_children":[2,4,6,8,10,12,14,16,18,20,22,24,26,28,30,32,34,36,38,40,42,44,46,48,-1,50,52,54,56,58,60,-1,62,64,66,68,70,72,74,76,78,80,82,84,86,88,90,92,94,96,98,100,102,104,106,108,110,112,114,-1,116,-1,-1,-1,-1,-1,-1,-1,-1,-1,-1,-1,-1,-1,-1,-1,-1,-1,-1,-1,-1,-1,-1,-1,-1,-1,-1,-1,-1,-1,-1,-1,-1,-1,-1,-1,-1,-1,-1,-1,-1,-1,-1,-1,-1,-1,-1,-1,-1,-1,-1,-1,-1,-1,-1,-1,-1],"split_conditions":[5.2039635E-1,4.9447122E-1,3.1680036E-1,2.1611612E-1,2.1683891E-1,6.686507E-1,-2.0267E4,-2.332E4,-1.9591E4,-2.0267E4,4.638368E5,9.2338694E5,-2.2932E4,6.121162E-1,7.432472E5,2.1483398E5,2.2796712E5,1.0216331E5,4.214201E-1,2.4630523E-1,7.9041176E-2,3.3554554E-1,5.0499816E5,5.664164E5,-2.7461135E-1,1E0,8.948735E-2,2.911878E5,7.390953E-1,5.3704644E5,8.281177E-1,5.359955E-1,5.674345E-1,-1.3991E4,7.81127E5,3.1585884E-1,3.5715488E5,3.5715488E5,-1.1339E4,1E0,-2.2999E4,2.426179E5,1.9578152E5,1E0,6.668711E-1,7.642329E-1,9.205429E-1,-1.984E4,2.3424695E-1,7.3028857E-1,1E0,1E0,1.471233E5,-2.4332E4,4.3189317E-1,1E0,1.4767106E5,5.801431E-1,5.5807825E5,-3.480005E-1,8.8721097E-1,-2.3168911E-1,1.9297083E-1,8.304083E-2,3.020653E-1,1.1439916E-1,5.768156E-1,6.045376E-1,1.6831073E-1,-6.330727E-2,2.6377988E-1,2.6081067E-1,3.453781E-2,-5.6681525E-2,-3.2333326E-1,-2.3697369E-1,8.905298E-2,8.255204E-2,4.0490696E-1,2.7100489E-2,3.128962E-1,1.04554035E-2,-1.9767776E-1,-1.738441E-1,1.1024027E-1,-6.097295E-2,-2.3669209E-1,4.397354E-1,4.5422062E-2,-3.8649637E-2,-2.8533775E-1,2.1486603E-1,-8.226733E-2,4.6291724E-1,1.9779425E-2,-9.326678E-2,3.4550545E-1,1.6606136E-1,-2.6593402E-1,-9.594617E-2,2.7948314E-1,2.5658797E-2,-1.4441755E-1,3.611537E-2,-2.679861E-1,-1.4513396E-1,1.4751531E-1,-3.075225E-1,9.633323E-3,-1.0745281E-1,-3.066914E-1,-7.849073E-2,-2.7271444E-1,1.2986831E-1,-1.5749453E-1,-2.70077E-2,-2.6564547E-1],"split_indices":[4,5,5,5,4,4,0,0,0,0,2,2,0,5,2,1,1,1,4,3,4,3,2,2,0,10,5,2,4,2,3,0,3,0,2,4,2,2,0,10,0,1,1,6,5,5,5,0,5,4,6,12,1,0,5,6,2,4,2,0,3,0,0,0,0,0,0,0,0,0,0,0,0,0,0,0,0,0,0,0,0,0,0,0,0,0,0,0,0,0,0,0,0,0,0,0,0,0,0,0,0,0,0,0,0,0,0,0,0,0,0,0,0,0,0,0,0],"split_type":[0,0,0,0,0,0,0,0,0,0,0,0,0,0,0,0,0,0,0,0,0,0,0,0,0,0,0,0,0,0,0,0,0,0,0,0,0,0,0,0,0,0,0,0,0,0,0,0,0,0,0,0,0,0,0,0,0,0,0,0,0,0,0,0,0,0,0,0,0,0,0,0,0,0,0,0,0,0,0,0,0,0,0,0,0,0,0,0,0,0,0,0,0,0,0,0,0,0,0,0,0,0,0,0,0,0,0,0,0,0,0,0,0,0,0,0,0],"sum_hessian":[7.0796344E2,3.9587338E2,3.1209003E2,2.0740456E2,1.8846884E2,1.1717658E2,1.9491344E2,9.378688E1,1.1361767E2,8.651366E1,1.0195519E2,3.760098E1,7.957561E1,5.918051E1,1.3573293E2,1.3043374E1,8.074351E1,3.2002888E1,8.1614784E1,2.8348526E1,5.816513E1,4.6044254E1,5.5910934E1,3.517718E1,2.423797E0,1.4396373E1,6.517923E1,2.6890394E1,3.2290115E1,1.08032974E2,2.769995E1,1.0554235E1,2.4891381E0,6.592098E1,1.4822527E1,5.419319E0,2.6583567E1,7.011729E1,1.1497496E1,5.563397E0,2.278513E1,2.3060682E1,3.5104446E1,1.6004349E1,3.0039907E1,7.1552467E0,4.8755688E1,2.3860703E1,1.131648E1,7.5759077E0,6.820465E0,1.9035456E1,4.6143776E1,6.375507E0,2.0514887E1,1.5082033E1,1.7208084E1,7.772804E1,3.0304934E1,2.3107212E1,4.5927377E0,1.3376824E0,1.1514558E0,3.971238E1,2.6208601E1,6.672121E0,8.150406E0,3.7084577E0,1.7108616E0,6.926007E0,1.965756E1,2.257321E1,4.7544075E1,7.011914E0,4.485582E0,3.2694573E0,2.2939394E0,1.1183892E1,1.1601236E1,1.9396729E1,3.6639547E0,2.1672E1,1.3432447E1,7.8697343E0,8.134614E0,8.342439E0,2.1697468E1,3.7864654E0,3.368781E0,4.2789173E1,5.9665136E0,9.152197E0,1.4708505E1,8.453699E0,2.862781E0,1.2938768E0,6.282031E0,2.8339725E0,3.9864929E0,1.115747E1,7.8779855E0,1.5080055E1,3.106372E1,1.2990147E0,5.0764923E0,8.121614E0,1.2393272E1,5.3918386E0,9.690194E0,1.4952714E0,1.5712812E1,9.391097E0,6.8336945E1,3.3174107E0,2.6987522E1,1.8657997E0,2.726938E0],"tree_param":{"num_deleted":"0","num_feature":"14","num_nodes":"117","size_leaf_vector":"1"}},{"base_weights":[-2.199324E-2,1.9690192E-1,-3.2837042E-1,4.0107292E-1,-4.470197E-2,5.6000046E-2,-5.915651E-1,4.631648E-1,3.70762E-1,1.00601345E-1,-2.319507E-1,4.208196E-1,-3.2505043E-2,-3.81313E-1,-7.1757424E-1,2.4071465E-1,6.8358064E-1,2.1932504E-1,-4.031438E-1,-1.6960342E-1,-8.151178E-1,6.351892E-1,-1.6702056E-1,-5.2651733E-1,5.994496E-2,-4.6062326E-1,8.562745E-1,-9.259692E-1,-5.412426E-1,5.4660225E-1,1.0525568E-1,1.8245E0,5.484804E-1,6.475298E-1,9.669621E-2,1.131126E-1,-6.27261E-1,-4.2458108E-1,7.7549905E-2,-3.077408E-1,-3.0748824E-2,3.0640024E-1,1.1156894E0,3.778947E-1,-2.6668462E-1,5.048166E-1,-7.5891584E-1,-3.878333E-1,2.2484049E-1,-1.2188484E-1,-6.318065E-1,1.3774063E-1,4.2473525E-1,-9.9395317E-1,-1.972655E-1,-2.3440777E-1,-8.8806456E-1,3.2614008E-1,8.620805E-2,1.32835E-1,-1.5343561E-2,6.0608065E-1,1.5097286E-1,1.18175425E-1,3.8948774E-1,-2.2556406E-1,2.7829742E-1,-2.4904752E-1,5.0841372E-2,-1.4535128E-1,1.8900684E-1,-2.3132536E-1,7.4134305E-2,-2.2761278E-1,-4.5431875E-2,1.9312786E-1,-2.954633E-2,1.7810392E-1,-1.3675924E-1,-5.101041E-2,4.9609363E-1,-9.8572284E-2,3.245354E-1,2.787573E-1,-6.3837714E-2,-2.6921555E-1,-7.219958E-2,8.945154E-2,-2.1208398E-1,1.0893896E-1,-5.262564E-2,4.659133E-2,-2.0650937E-1,-1.3740611E-1,-3.178726E-1,1.15498655E-1,-5.318232E-2,-3.097717E-1,-5.7703126E-2,-2.5410122E-1,2.2510025E-1,-1.7681518E-1,2.906679E-2,-2.8180858E-1,-6.879317E-2],"categories":[],"categories_nodes":[],"categories_segments":[],"categories_sizes":[],"default_left":[0,0,0,0,0,0,0,0,0,0,0,0,0,0,0,0,0,0,0,0,0,0,0,0,0,0,0,0,0,0,0,0,0,0,0,0,0,0,0,0,0,0,0,0,0,0,0,0,0,0,0,0,0,0,0,0,0,0,0,0,0,0,0,0,0,0,0,0,0,0,0,0,0,0,0,0,0,0,0,0,0,0,0,0,0,0,0,0,0,0,0,0,0,0,0,0,0,0,0,0,0,0,0,0,0],"id":2,"left_children":[1,3,5,7,9,11,13,-1,15,17,19,21,23,25,27,29,31,33,35,37,39,41,43,45,47,49,51,53,55,57,59,61,63,65,67,69,71,73,75,-1,-1,77,79,81,-1,83,85,87,89,91,93,95,-1,97,99,101,103,-1,-1,-1,-1,-1,-1,-1,-1,-1,-1,-1,-1,-1,-1,-1,-1,-1,-1,-1,-1,-1,-1,-1,-1,-1,-1,-1,-1,-1,-1,-1,-1,-1,-1,-1,-1,-1,-1,-1,-1,-1,-1,-1,-1,-1,-1,-1,-1],"loss_changes":[4.6567223E1,1.9999287E1,2.9303347E1,7.0358734E0,5.0955877E0,3.8401604E0,4.2786407E0,0E0,8.593391E0,6.4080286E0,2.8343978E0,3.0307698E0,4.429747E0,6.923849E0,3.4050484E0,6.307255E0,8.659763E0,4.4617343E0,2.4435773E0,4.7671623E0,1.0410061E0,2.3778615E0,3.087214E0,4.0461607E0,6.143097E0,3.5857878E0,1.556262E0,2.1478806E0,6.1754894E0,6.26064E0,5.708137E0,5.8852196E-1,6.1487083E0,8.148121E0,4.7378845E0,2.4845364E0,2.0079308E0,3.2738695E0,3.9500086E0,0E0,0E0,2.8107944E0,4.8567963E0,2.6862862E0,0E0,1.2365129E0,7.077484E-1,5.1234784E0,3.4166932E0,3.631165E0,2.616335E0,3.030711E-1,0E0,1.1334648E0,3.8895252E0,3.9599848E0,7.2402763E-1,0E0,0E0,0E0,0E0,0E0,0E0,0E0,0E0,0E0,0E0,0E0,0E0,0E0,0E0,0E0,0E0,0E0,0E0,0E0,0E0,0E0,0E0,0E0,0E0,0E0,0E0,0E0,0E0,0E0,0E0,0E0,0E0,0E0,0E0,0E0,0E0,0E0,0E0,0E0,0E0,0E0,0E0,0E0,0E0,0E0,0E0,0E0,0E0],"parents":[2147483647,0,0,1,1,2,2,3,3,4,4,5,5,6,6,8,8,9,9,10,10,11,11,12,12,13,13,14,14,15,15,16,16,17,17,18,18,19,19,20,20,21,21,22,22,23,23,24,24,25,25,26,26,27,27,28,28,29,29,30,30,31,31,32,32,33,33,34,34,35,35,36,36,37,37,38,38,41,41,42,42,43,43,45,45,46,46,47,47,48,48,49,49,50,50,51,51,53,53,54,54,55,55,56,56],"right_children":[2,4,6,8,10,12,14,-1,16,18,20,22,24,26,28,30,32,34,36,38,40,42,44,46,48,50,52,54,56,58,60,62,64,66,68,70,72,74,76,-1,-1,78,80,82,-1,84,86,88,90,92,94,96,-1,98,100,102,104,-1,-1,-1,-1,-1,-1,-1,-1,-1,-1,-1,-1,-1,-1,-1,-1,-1,-1,-1,-1,-1,-1,-1,-1,-1,-1,-1,-1,-1,-1,-1,-1,-1,-1,-1,-1,-1,-1,-1,-1,-1,-1,-1,-1,-1,-1,-1,-1],"split_conditions":[5.2039635E-1,4.9447122E-1,3.1680036E-1,1.798323E-2,2.7378327E-1,1.7882918E-1,5.737208E-1,4.631648E-1,7.226681E-1,-1.1078E4,9.089406E5,8.557344E-1,2.995057E-1,5.6187105E-1,1E0,1.4806361E-1,-2.4146E4,6.0012734E-1,6.4368404E-2,4.709817E5,1E0,1.9154495E5,1.866828E5,1.1472081E5,2.911878E5,-2.0361E4,1E0,9.438439E-1,7.618996E-1,3.5048988E5,-1.9655E4,9.609742E-1,8.3372275E5,-2.3088E4,6.937232E-2,-8.934E3,7.7687985E-1,3.8648722E-1,3.2963282E-1,-3.077408E-1,-3.0748824E-2,1.3606066E-1,6.6191375E-1,9.3797195E-1,-2.6668462E-1,1.1835158E-1,-1.3802E4,1.6049817E5,2.3424695E-1,8.557344E-1,7.0332325E5,7.350458E-1,4.2473525E-1,9.8319966E-1,7.9610807E-1,4.427807E5,-8.691E3,3.2614008E-1,8.620805E-2,1.32835E-1,-1.5343561E-2,6.0608065E-1,1.5097286E-1,1.18175425E-1,3.8948774E-1,-2.2556406E-1,2.7829742E-1,-2.4904752E-1,5.0841372E-2,-1.4535128E-1,1.8900684E-1,-2.3132536E-1,7.4134305E-2,-2.2761278E-1,-4.5431875E-2,1.9312786E-1,-2.954633E-2,1.7810392E-1,-1.3675924E-1,-5.101041E-2,4.9609363E-1,-9.8572284E-2,3.245354E-1,2.787573E-1,-6.3837714E-2,-2.6921555E-1,-7.219958E-2,8.945154E-2,-2.1208398E-1,1.0893896E-1,-5.262564E-2,4.659133E-2,-2.0650937E-1,-1.3740611E-1,-3.178726E-1,1.15498655E-1,-5.318232E-2,-3.097717E-1,-5.7703126E-2,-2.5410122E-1,2.2510025E-1,-1.7681518E-1,2.906679E-2,-2.8180858E-1,-6.879317E-2],"split_indices":[4,5,5,3,4,3,5,0,3,0,2,4,3,5,6,5,0,5,4,2,8,1,1,1,2,0,13,4,4,2,0,3,2,0,3,0,3,4,4,0,0,3,4,4,0,5,0,2,5,4,2,4,0,5,5,2,0,0,0,0,0,0,0,0,0,0,0,0,0,0,0,0,0,0,0,0,0,0,0,0,0,0,0,0,0,0,0,0,0,0,0,0,0,0,0,0,0,0,0,0,0,0,0,0,0],"split_type":[0,0,0,0,0,0,0,0,0,0,0,0,0,0,0,0,0,0,0,0,0,0,0,0,0,0,0,0,0,0,0,0,0,0,0,0,0,0,0,0,0,0,0,0,0,0,0,0,0,0,0,0,0,0,0,0,0,0,0,0,0,0,0,0,0,0,0,0,0,0,0,0,0,0,0,0,0,0,0,0,0,0,0,0,0,0,0,0,0,0,0,0,0,0,0,0,0,0,0,0,0,0,0,0,0],"sum_hessian":[6.924008E2,4.0406714E2,2.8833368E2,2.1864111E2,1.8542601E2,1.1750953E2,1.7082416E2,4.3590126E0,2.142821E2,1.04667625E2,8.075839E1,2.2208977E1,9.530055E1,6.5522675E1,1.0530148E2,1.5260818E2,6.1673923E1,8.5161255E1,1.9506369E1,7.412446E1,6.6339283E0,1.6215185E1,5.9937916E0,1.4283048E1,8.10175E1,6.2166557E1,3.356113E0,4.6314304E1,5.898718E1,4.5907238E1,1.06700935E2,5.2058477E0,5.6468075E1,1.8006027E1,6.715523E1,6.0546694E0,1.3451699E1,3.6131367E1,3.7993095E1,4.7809696E0,1.8529589E0,1.0599797E1,5.615388E0,3.6872118E0,2.3065796E0,2.4110649E0,1.1871984E1,2.144124E1,5.957626E1,2.1444353E1,4.0722206E1,2.01482E0,1.3412929E0,4.2029213E1,4.2850924E0,3.2187042E1,2.6800138E1,1.3845418E1,3.206182E1,3.3206707E1,7.349423E1,4.0732675E0,1.1325803E0,4.808205E1,8.386024E0,2.7223227E0,1.5283704E1,4.1313705E0,6.302386E1,2.837191E0,3.2174783E0,1.1653052E1,1.7986465E0,1.54517975E1,2.067957E1,8.380622E0,2.9612473E1,7.859064E0,2.7407334E0,1.8581947E0,3.7571933E0,2.106348E0,1.5808637E0,1.3298092E0,1.0812558E0,8.791461E0,3.080522E0,6.828177E0,1.4613064E1,4.434712E1,1.5229142E1,1.4886129E1,6.5582232E0,3.0430267E1,1.0291939E1,1.0043542E0,1.0104659E0,3.982256E1,2.2066536E0,2.605051E0,1.6800413E0,1.5162162E1,1.7024878E1,2.4468779E1,2.3313596E0],"tree_param":{"num_deleted":"0","num_feature":"14","num_nodes":"105","size_leaf_vector":"1"}},{"base_weights":[-2.2893589E-2,1.12743154E-1,-3.1018254E-1,4.0706113E-1,5.27022E-3,-1.2534453E-1,-6.710305E-1,2.8248215E-1,6.609936E-1,1.3258435E-1,-1.9144897E-1,-1.537705E-1,8.500953E-1,-5.1118344E-1,-7.9088986E-1,1.0638423E0,2.421996E-1,4.8622784E-1,1.4374417E0,3.5997388E-1,1.2480306E-2,-6.5244384E-2,-4.0792435E-1,-3.2812987E-2,-4.0108946E-1,7.9196334E-2,3.4652022E-1,1.6541944E-1,-6.676197E-1,-8.855373E-1,-3.7319648E-1,1.0645091E-1,3.9014032E-1,3.0622104E-1,-2.0768823E-1,1.2168378E0,3.2942653E-1,6.655441E-1,5.620254E-1,-4.4903937E-1,4.6682984E-1,-9.761582E-1,7.052815E-2,-2.1697628E-1,3.4292406E-1,-4.7177505E-1,5.9708744E-1,-1.8041152E-1,2.5492695E-1,3.1697977E-1,-4.771046E-1,-2.1376742E-1,4.965879E-1,-8.928347E-1,-4.4234714E-1,-3.8937822E-1,-9.5135844E-1,2.3692383E-1,-6.334054E-1,7.15168E-2,3.1724107E-1,1.5094675E-1,-1.9455822E-1,1.10860266E-1,4.099852E-1,2.8298962E-1,3.812628E-2,3.466089E-1,-9.805644E-2,-2.3437674E-1,6.6257544E-2,-1.2249441E-1,1.8276957E-1,-4.20708E-2,-3.4734353E-1,5.6170236E-2,-1.04892015E-1,3.815697E-2,-1.1859228E-1,4.8396468E-1,6.1884813E-2,8.3954886E-2,-1.6870576E-1,3.7167538E-2,2.516415E-1,-6.8961434E-2,3.2484984E-1,1.4096643E-1,-9.8831505E-2,-1.5234858E-1,2.828172E-1,-9.887739E-2,-2.8322768E-1,3.1545383E-1,-7.599326E-2,-2.85567E-1,-3.7209768E-2,-1.723478E-1,1.5289079E-1,7.4408695E-2,-2.4306476E-1,-3.0186945E-1,-1.2577371E-1,-6.568675E-2,-2.707178E-1],"categories":[],"categories_nodes":[],"categories_segments":[],"categories_sizes":[],"default_left":[0,0,0,0,0,0,0,0,0,0,0,0,0,0,0,0,0,0,0,0,0,0,0,0,0,0,0,0,0,0,0,0,0,0,0,0,0,0,0,0,0,0,0,0,0,0,0,0,0,0,0,0,0,0,0,0,0,0,0,0,0,0,0,0,0,0,0,0,0,0,0,0,0,0,0,0,0,0,0,0,0,0,0,0,0,0,0,0,0,0,0,0,0,0,0,0,0,0,0,0,0,0,0,0,0],"id":3,"left_children":[1,3,5,7,9,11,13,15,17,19,21,23,25,27,29,31,33,35,37,39,41,43,45,47,49,-1,-1,51,53,55,57,-1,-1,59,61,63,65,67,-1,69,71,73,75,77,79,81,83,85,87,89,91,-1,93,95,97,99,101,-1,103,-1,-1,-1,-1,-1,-1,-1,-1,-1,-1,-1,-1,-1,-1,-1,-1,-1,-1,-1,-1,-1,-1,-1,-1,-1,-1,-1,-1,-1,-1,-1,-1,-1,-1,-1,-1,-1,-1,-1,-1,-1,-1,-1,-1,-1,-1],"loss_changes":[2.644183E1,1.4582056E1,1.442971E1,3.7143383E0,8.509518E0,4.1547303E0,1.0034943E0,2.4012184E0,4.7072983E0,5.62819E0,3.6208224E0,4.230675E0,4.570048E-1,3.7424479E0,1.2573433E0,1.8391895E-1,2.4147053E0,3.4978495E0,1.044486E0,6.3689547E0,7.873529E0,5.371374E0,3.4246788E0,4.1383204E0,2.6896439E0,0E0,0E0,2.460484E0,1.0291348E0,6.75127E-1,3.268521E0,0E0,0E0,3.4099798E0,3.6996987E0,2.1101284E-1,3.5306318E0,2.3261862E0,0E0,2.135994E0,8.1531315E0,9.931426E-1,6.4101562E0,3.914667E0,3.7576041E0,3.3306828E0,2.8121984E-1,4.264759E0,4.310669E0,3.0864644E0,2.613225E0,0E0,2.700859E0,4.7462654E-1,2.3074312E0,1.6609263E0,3.8324165E-1,0E0,6.9765806E-1,0E0,0E0,0E0,0E0,0E0,0E0,0E0,0E0,0E0,0E0,0E0,0E0,0E0,0E0,0E0,0E0,0E0,0E0,0E0,0E0,0E0,0E0,0E0,0E0,0E0,0E0,0E0,0E0,0E0,0E0,0E0,0E0,0E0,0E0,0E0,0E0,0E0,0E0,0E0,0E0,0E0,0E0,0E0,0E0,0E0,0E0],"parents":[2147483647,0,0,1,1,2,2,3,3,4,4,5,5,6,6,7,7,8,8,9,9,10,10,11,11,12,12,13,13,14,14,15,15,16,16,17,17,18,18,19,19,20,20,21,21,22,22,23,23,24,24,27,27,28,28,29,29,30,30,33,33,34,34,35,35,36,36,37,37,39,39,40,40,41,41,42,42,43,43,44,44,45,45,46,46,47,47,48,48,49,49,50,50,52,52,53,53,54,54,55,55,56,56,58,58],"right_children":[2,4,6,8,10,12,14,16,18,20,22,24,26,28,30,32,34,36,38,40,42,44,46,48,50,-1,-1,52,54,56,58,-1,-1,60,62,64,66,68,-1,70,72,74,76,78,80,82,84,86,88,90,92,-1,94,96,98,100,102,-1,104,-1,-1,-1,-1,-1,-1,-1,-1,-1,-1,-1,-1,-1,-1,-1,-1,-1,-1,-1,-1,-1,-1,-1,-1,-1,-1,-1,-1,-1,-1,-1,-1,-1,-1,-1,-1,-1,-1,-1,-1,-1,-1,-1,-1,-1,-1],"split_conditions":[6.0953814E-1,2.212585E-1,5.737208E-1,1E0,3.3305845E-1,5.6187105E-1,7.618996E-1,6.936925E-3,8.6981195E-1,-1.9591E4,5.829481E5,3.1680036E-1,1E0,-2.2364E4,7.982619E-1,-1.7738E4,2.4405972E5,1.0267325E-1,-1.6575E4,-2.4696E4,-1.8977E4,4.709817E5,5.9843737E-1,1.9216181E5,-2.4332E4,7.9196334E-2,3.4652022E-1,2.8281347E5,1E0,6.432946E-1,8.329165E-1,1.0645091E-1,3.9014032E-1,2.2909284E5,2.2926544E-1,2.6967584E5,2.0151347E-1,-2.1517E4,5.620254E-1,1.6525981E-1,1.8807991E-1,1.2300873E5,7.917023E-1,2.6465597E5,-2.5108E4,-2.3787E4,6.432946E-1,3.1036288E-1,2.4639402E5,-2.4859E4,7.0332325E5,-2.1376742E-1,8.4212846E-1,9.7080296E-1,7.390953E-1,8.848398E-1,2.3479202E5,2.3692383E-1,4.3001053E5,7.15168E-2,3.1724107E-1,1.5094675E-1,-1.9455822E-1,1.10860266E-1,4.099852E-1,2.8298962E-1,3.812628E-2,3.466089E-1,-9.805644E-2,-2.3437674E-1,6.6257544E-2,-1.2249441E-1,1.8276957E-1,-4.20708E-2,-3.4734353E-1,5.6170236E-2,-1.04892015E-1,3.815697E-2,-1.1859228E-1,4.8396468E-1,6.1884813E-2,8.3954886E-2,-1.6870576E-1,3.7167538E-2,2.516415E-1,-6.8961434E-2,3.2484984E-1,1.4096643E-1,-9.8831505E-2,-1.5234858E-1,2.828172E-1,-9.887739E-2,-2.8322768E-1,3.1545383E-1,-7.599326E-2,-2.85567E-1,-3.7209768E-2,-1.723478E-1,1.5289079E-1,7.4408695E-2,-2.4306476E-1,-3.0186945E-1,-1.2577371E-1,-6.568675E-2,-2.707178E-1],"split_indices":[4,5,5,8,4,5,4,5,3,0,2,5,13,0,3,0,1,4,0,0,0,2,4,1,0,0,0,2,6,5,3,0,0,1,4,2,3,0,0,4,3,1,5,2,0,0,5,5,1,0,2,0,5,5,4,4,1,0,2,0,0,0,0,0,0,0,0,0,0,0,0,0,0,0,0,0,0,0,0,0,0,0,0,0,0,0,0,0,0,0,0,0,0,0,0,0,0,0,0,0,0,0,0,0,0],"split_type":[0,0,0,0,0,0,0,0,0,0,0,0,0,0,0,0,0,0,0,0,0,0,0,0,0,0,0,0,0,0,0,0,0,0,0,0,0,0,0,0,0,0,0,0,0,0,0,0,0,0,0,0,0,0,0,0,0,0,0,0,0,0,0,0,0,0,0,0,0,0,0,0,0,0,0,0,0,0,0,0,0,0,0,0,0,0,0,0,0,0,0,0,0,0,0,0,0,0,0,0,0,0,0,0,0],"sum_hessian":[6.7667346E2,4.6006985E2,2.1660362E2,1.2231602E2,3.377538E2,1.4412534E2,7.2478294E1,8.347548E1,3.8840546E1,2.0524677E2,1.3250705E2,1.4086272E2,3.2626224E0,3.331437E1,3.9163925E1,2.8467917E0,8.0628685E1,3.303184E1,5.808706E0,7.024906E1,1.3499771E2,8.4528534E1,4.7978523E1,9.5358116E1,4.5504593E1,1.7551391E0,1.5074834E0,6.2453146E0,2.7069054E1,3.1015816E1,8.148111E0,1.3378206E0,1.508971E0,7.086374E1,9.764946E0,4.642041E0,2.83898E1,3.008574E0,2.8001316E0,7.822455E0,6.2426605E1,6.609636E0,1.2838808E2,6.1962936E1,2.2565594E1,4.5611305E1,2.3672144E0,6.327414E1,3.2083977E1,4.0525584E0,4.1452038E1,1.3950852E0,4.8502297E0,1.2054389E1,1.5014665E1,4.4426737E0,2.6573143E1,1.1177123E0,7.030399E0,6.620343E1,4.660309E0,3.6836987E0,6.0812473E0,1.2181499E0,3.423891E0,6.130034E0,2.2259764E1,1.9044042E0,1.10417E0,5.1180673E0,2.704388E0,8.475057E0,5.395155E1,1.496256E0,5.11338E0,1.0091288E2,2.7475193E1,2.1246174E1,4.0716766E1,1.1420721E0,2.1423521E1,4.6806865E0,4.0930622E1,1.3117771E0,1.0554373E0,6.1677315E1,1.5968271E0,2.3598919E1,8.485056E0,1.8294966E0,2.223062E0,3.2797615E1,8.65442E0,2.5563357E0,2.2938938E0,1.09733305E1,1.0810585E0,1.3532709E1,1.4819552E0,1.9300383E0,2.5126355E0,2.3281294E1,3.291848E0,3.480981E0,3.5494175E0],"tree_param":{"num_deleted":"0","num_feature":"14","num_nodes":"105","size_leaf_vector":"1"}},{"base_weights":[-1.8971892E-2,1.1145516E-1,-2.0393087E-1,1.9766392E-1,-1.2118868E-1,-5.3325992E-2,-4.772677E-1,4.5540404E-2,2.960344E-1,1.1884258E-1,-2.4212745E-1,1.1085834E-1,-1.4187327E-1,-6.8903637E-1,-3.1597042E-1,2.2148558E-1,-2.9030094E-1,1.7182252E-1,5.3800213E-1,4.586113E-1,-1.960696E-1,-2.980344E-1,-1.23690255E-1,-2.1921526E-1,1.5790871E-1,1.0942264E-1,-2.594877E-1,-8.5445565E-1,-1.0150239E-1,-7.734595E-2,-6.6371995E-1,1.2482745E-1,7.4947125E-1,-3.929186E-1,5.352357E-1,5.0278354E-1,4.718596E-2,7.627461E-1,1.3130732E-1,-2.5098616E-1,6.785311E-1,-4.0774834E-1,1.0670577E0,-2.0784067E-1,8.4734815E-1,5.342279E-1,-3.658848E-3,3.134834E-1,-2.9876402E-1,3.107866E-1,-3.8805997E-1,4.791301E-2,-9.256097E-1,-6.064725E-1,4.0606084E-1,-2.8347808E-1,6.967981E-2,-3.792414E-1,-8.6313653E-1,1.5926611E-1,-2.7444702E-2,-5.367369E-2,3.9844513E-1,1.9012117E-3,-2.0889896E-1,-1.2282432E-1,4.445997E-1,1.8929043E-1,-9.997233E-2,1.9096643E-1,-7.1231923E-3,3.0211198E-1,7.310965E-3,3.2258463E-1,-4.4861484E-2,3.3034867E-1,-4.634296E-3,-3.2407334E-1,-2.4361467E-2,8.414758E-2,4.030977E-1,1.558318E-2,-1.487001E-1,-5.5637177E-2,3.548525E-1,2.2700825E-1,-2.080263E-1,-1.3680647E-1,4.9669944E-2,-1.4887908E-1,1.752503E-1,-2.0869309E-1,7.621289E-2,-3.7791047E-2,1.9483013E-1,-2.237904E-1,-6.0587823E-2,-1.914411E-1,2.2917269E-1,-2.9524678E-1,2.5413932E-2,7.594419E-2,-2.6166096E-1,2.42406E-1,-1.8231948E-1,1.5915386E-1,-4.6505235E-2,8.540461E-2,-1.798352E-1,-3.0099964E-1,4.6415325E-2],"categories":[],"categories_nodes":[],"categories_segments":[],"categories_sizes":[],"default_left":[0,0,0,0,0,0,0,0,0,0,0,0,0,0,0,0,0,0,0,0,0,0,0,0,0,0,0,0,0,0,0,0,0,0,0,0,0,0,0,0,0,0,0,0,0,0,0,0,0,0,0,0,0,0,0,0,0,0,0,0,0,0,0,0,0,0,0,0,0,0,0,0,0,0,0,0,0,0,0,0,0,0,0,0,0,0,0,0,0,0,0,0,0,0,0,0,0,0,0,0,0,0,0,0,0,0,0,0,0,0,0],"id":4,"left_children":[1,3,5,7,9,11,13,15,17,19,21,23,25,27,29,31,33,35,37,39,41,-1,43,-1,45,47,49,51,53,55,57,59,61,63,65,67,69,71,73,-1,75,77,79,81,83,85,87,89,91,93,95,97,99,101,103,-1,105,107,109,-1,-1,-1,-1,-1,-1,-1,-1,-1,-1,-1,-1,-1,-1,-1,-1,-1,-1,-1,-1,-1,-1,-1,-1,-1,-1,-1,-1,-1,-1,-1,-1,-1,-1,-1,-1,-1,-1,-1,-1,-1,-1,-1,-1,-1,-1,-1,-1,-1,-1,-1,-1],"loss_changes":[1.6002785E1,7.8282456E0,1.1266204E1,4.240879E0,3.100885E0,2.6031966E0,3.1064377E0,6.7312145E0,5.091202E0,3.9554577E0,6.1684227E0,2.6067224E0,3.4586837E0,3.920292E0,4.6859837E0,3.713893E0,3.5329132E0,4.7379875E0,5.2043285E0,5.6030207E0,5.6355934E0,0E0,5.2599783E0,0E0,3.6748877E0,3.2343183E0,5.9390483E0,2.1013184E0,2.8586617E0,4.5288587E0,9.8313904E-1,5.6929245E0,6.332447E0,4.300178E0,4.863607E0,3.5833936E0,3.5667725E0,6.680334E0,5.957132E0,0E0,4.611133E0,3.729334E0,2.906344E-1,4.3668537E0,2.0068307E0,5.4822545E0,3.386874E0,5.906801E0,3.046255E0,2.323316E0,4.1921387E0,2.104686E0,1.8427486E0,1.4795144E0,2.8065715E0,0E0,3.2766557E0,1.8232545E0,1.9813223E0,0E0,0E0,0E0,0E0,0E0,0E0,0E0,0E0,0E0,0E0,0E0,0E0,0E0,0E0,0E0,0E0,0E0,0E0,0E0,0E0,0E0,0E0,0E0,0E0,0E0,0E0,0E0,0E0,0E0,0E0,0E0,0E0,0E0,0E0,0E0,0E0,0E0,0E0,0E0,0E0,0E0,0E0,0E0,0E0,0E0,0E0,0E0,0E0,0E0,0E0,0E0,0E0],"parents":[2147483647,0,0,1,1,2,2,3,3,4,4,5,5,6,6,7,7,8,8,9,9,10,10,11,11,12,12,13,13,14,14,15,15,16,16,17,17,18,18,19,19,20,20,22,22,24,24,25,25,26,26,27,27,28,28,29,29,30,30,31,31,32,32,33,33,34,34,35,35,36,36,37,37,38,38,40,40,41,41,42,42,43,43,44,44,45,45,46,46,47,47,48,48,49,49,50,50,51,51,52,52,53,53,54,54,56,56,57,57,58,58],"right_children":[2,4,6,8,10,12,14,16,18,20,22,24,26,28,30,32,34,36,38,40,42,-1,44,-1,46,48,50,52,54,56,58,60,62,64,66,68,70,72,74,-1,76,78,80,82,84,86,88,90,92,94,96,98,100,102,104,-1,106,108,110,-1,-1,-1,-1,-1,-1,-1,-1,-1,-1,-1,-1,-1,-1,-1,-1,-1,-1,-1,-1,-1,-1,-1,-1,-1,-1,-1,-1,-1,-1,-1,-1,-1,-1,-1,-1,-1,-1,-1,-1,-1,-1,-1,-1,-1,-1,-1,-1,-1,-1,-1,-1],"split_conditions":[5.06468E-1,6.737025E-1,5.2039635E-1,3.890305E-1,-2.0208E4,-2.001E4,1E0,2.558287E-1,1.9815314E5,4.1632544E5,-1.8783E4,1.2964722E5,3.2572263E-1,7.9466194E-1,7.719932E-1,-1.0166E4,2.4037267E5,2.6465597E5,1E0,7.2636586E-1,4.3189317E-1,-2.980344E-1,9.814381E-1,-2.1921526E-1,3.4752222E5,7.917023E-1,7.13971E-2,4.159607E-2,1.8443988E5,2.234311E5,7.055372E-1,1.4404703E5,3.9639538E5,1.5976867E5,2.7390292E-1,9.2762035E-1,4.643406E-2,2.528366E5,4.0665516E5,-2.5098616E-1,5.793756E-1,5.307201E5,4.689105E-1,5.390619E-1,3.6385644E5,8.932691E-1,4.6144516E5,8.630488E-2,1.9766166E5,7.29838E-1,5.159726E-1,6.0252494E5,9.8319966E-1,5.7033944E-1,2.563503E5,-2.8347808E-1,1.522723E5,2.8291348E-1,-8.801E3,1.5926611E-1,-2.7444702E-2,-5.367369E-2,3.9844513E-1,1.9012117E-3,-2.0889896E-1,-1.2282432E-1,4.445997E-1,1.8929043E-1,-9.997233E-2,1.9096643E-1,-7.1231923E-3,3.0211198E-1,7.310965E-3,3.2258463E-1,-4.4861484E-2,3.3034867E-1,-4.634296E-3,-3.2407334E-1,-2.4361467E-2,8.414758E-2,4.030977E-1,1.558318E-2,-1.487001E-1,-5.5637177E-2,3.548525E-1,2.2700825E-1,-2.080263E-1,-1.3680647E-1,4.9669944E-2,-1.4887908E-1,1.752503E-1,-2.0869309E-1,7.621289E-2,-3.7791047E-2,1.9483013E-1,-2.237904E-1,-6.0587823E-2,-1.914411E-1,2.2917269E-1,-2.9524678E-1,2.5413932E-2,7.594419E-2,-2.6166096E-1,2.42406E-1,-1.8231948E-1,1.5915386E-1,-4.6505235E-2,8.540461E-2,-1.798352E-1,-3.0099964E-1,4.6415325E-2],"split_indices":[5,4,4,3,0,0,6,3,1,2,0,2,3,3,4,0,1,2,12,4,5,0,4,0,2,5,4,3,1,2,5,1,2,1,5,3,5,1,2,0,3,2,5,3,2,3,2,3,1,5,3,2,5,5,1,0,1,3,0,0,0,0,0,0,0,0,0,0,0,0,0,0,0,0,0,0,0,0,0,0,0,0,0,0,0,0,0,0,0,0,0,0,0,0,0,0,0,0,0,0,0,0,0,0,0,0,0,0,0,0,0],"split_type":[0,0,0,0,0,0,0,0,0,0,0,0,0,0,0,0,0,0,0,0,0,0,0,0,0,0,0,0,0,0,0,0,0,0,0,0,0,0,0,0,0,0,0,0,0,0,0,0,0,0,0,0,0,0,0,0,0,0,0,0,0,0,0,0,0,0,0,0,0,0,0,0,0,0,0,0,0,0,0,0,0,0,0,0,0,0,0,0,0,0,0,0,0,0,0,0,0,0,0,0,0,0,0,0,0,0,0,0,0,0,0],"sum_hessian":[6.614228E2,3.8812622E2,2.7329657E2,2.8329752E2,1.0482869E2,1.7697876E2,9.6317795E1,1.1182713E2,1.7147038E2,3.512743E1,6.970126E1,6.1918163E1,1.150606E2,4.022897E1,5.6088825E1,7.360594E1,3.8221188E1,1.1443589E2,5.7034496E1,1.667737E1,1.845006E1,8.485364E0,6.1215897E1,2.509047E0,5.940912E1,3.6705334E1,7.835526E1,3.103641E1,9.192562E0,3.3988476E1,2.210035E1,6.3261166E1,1.0344776E1,3.446152E1,3.759667E0,3.0475903E1,8.395999E1,3.61707E1,2.0863794E1,2.013649E0,1.4663721E1,1.6381918E1,2.0681405E0,5.7057262E1,4.158635E0,1.715217E1,4.2256947E1,2.4626207E1,1.2079127E1,1.4154896E1,6.420037E1,2.2923005E0,2.8744108E1,4.510367E0,4.6821947E0,4.138826E0,2.9849648E1,1.0303543E1,1.1796806E1,2.1481506E1,4.177966E1,4.23743E0,6.1073456E0,1.5303244E1,1.915828E1,2.1660328E0,1.5936341E0,2.6637024E1,3.83888E0,8.162445E0,7.579755E1,2.690519E1,9.265511E0,4.1353555E0,1.6728437E1,8.748918E0,5.9148035E0,4.6001253E0,1.1781794E1,1.0620563E0,1.0060842E0,3.0420256E1,2.6637005E1,1.1293086E0,3.0293267E0,1.4845578E1,2.3065922E0,1.1042924E1,3.1214024E1,5.9609046E0,1.8665302E1,6.880786E0,5.198342E0,6.456238E0,7.698658E0,2.0933231E1,4.326714E1,1.2261629E0,1.0661376E0,2.719416E1,1.5499483E0,1.0762213E0,3.4341457E0,3.4981744E0,1.1840202E0,9.337762E0,2.0511887E1,2.493362E0,7.8101816E0,1.0381204E1,1.4156028E0],"tree_param":{"num_deleted":"0","num_feature":"14","num_nodes":"111","size_leaf_vector":"1"}},{"base_weights":[-2.0271976E-2,1.3186604E-1,-1.1456773E-1,1.10999666E-1,7.218196E-1,4.131746E-2,-3.0675754E-1,4.4738242E-1,6.695954E-2,-1.9575436E-1,1.0457753E0,-7.453349E-2,1.462957E-1,-2.494424E-1,-6.54325E-1,6.0501325E-1,-7.257411E-1,4.7870737E-2,1.0957897E0,7.057171E-2,1.3052378E0,-1.8812679E-1,2.802399E-1,-8.605147E-2,2.9256237E-1,-3.085145E-1,1.6589619E-1,-8.50166E-1,7.151481E-2,7.4345607E-1,-1.6883726E-1,-2.6599875E-1,-4.9060903E-2,7.0978606E-1,2.3730012E-2,3.8021415E-1,9.4238155E-2,4.7577652E-1,1.6632593E-1,1.4085783E-1,-3.9329576E-1,-2.906803E-1,4.4567353E-1,2.0032609E-1,-8.982819E-1,4.3279584E-2,4.852687E-1,-7.6412475E-1,-2.6192987E-1,-3.212515E-1,8.48507E-1,-3.1680644E-1,-9.536596E-1,4.7235247E-1,-2.0720066E-1,1.2635769E-1,5.066454E-1,-1.4382769E-1,1.2035973E-1,3.9180464E-1,-6.6358508E-3,2.5181968E-2,-7.109512E-2,-1.8755636E-1,1.0089699E-1,2.6540133E-1,-1.3364795E-1,2.4020252E-1,-1.5607134E-3,9.364097E-2,-2.347993E-1,-3.0442303E-1,1.7667308E-2,1.0195925E-1,-1.5174854E-1,2.8478494E-1,1.01965986E-1,7.789018E-2,-2.6431683E-1,-1.3563983E-1,-3.7726805E-2,1.2048154E-1,-1.8358803E-1,4.099831E-1,-3.9861828E-2,-2.5326726E-1,1.6850266E-1,-3.189581E-1,-1.12992E-1,2.9979318E-1,-1.02465145E-1],"categories":[],"categories_nodes":[],"categories_segments":[],"categories_sizes":[],"default_left":[0,0,0,0,0,0,0,0,0,0,0,0,0,0,0,0,0,0,0,0,0,0,0,0,0,0,0,0,0,0,0,0,0,0,0,0,0,0,0,0,0,0,0,0,0,0,0,0,0,0,0,0,0,0,0,0,0,0,0,0,0,0,0,0,0,0,0,0,0,0,0,0,0,0,0,0,0,0,0,0,0,0,0,0,0,0,0,0,0,0,0],"id":5,"left_children":[1,3,5,7,9,11,13,15,17,-1,19,21,23,25,27,29,31,33,35,-1,37,39,41,43,45,47,49,51,53,55,57,-1,-1,59,61,-1,-1,-1,-1,63,65,-1,67,69,71,73,75,77,79,81,83,85,87,89,-1,-1,-1,-1,-1,-1,-1,-1,-1,-1,-1,-1,-1,-1,-1,-1,-1,-1,-1,-1,-1,-1,-1,-1,-1,-1,-1,-1,-1,-1,-1,-1,-1,-1,-1,-1,-1],"loss_changes":[9.338853E0,2.9869823E0,1.2049503E1,3.5524762E0,4.39092E0,2.7195687E0,3.4235554E0,5.583348E0,4.170019E0,0E0,1.1913543E0,4.346225E0,4.0074844E0,3.8830214E0,3.596321E0,2.811263E0,1.9424915E-1,3.3728435E0,1.2105608E-1,0E0,2.1182346E-1,5.542823E0,5.8545923E0,1.0889467E1,3.4443855E0,2.7093363E0,6.955559E0,7.8334904E-1,2.2226288E0,5.823476E0,1.0101607E0,0E0,0E0,3.2711556E0,3.2489152E0,0E0,0E0,0E0,0E0,4.996267E0,3.7518024E0,0E0,3.8227248E0,4.0754433E0,1.4179792E0,5.4728913E0,2.4153938E0,1.688539E0,3.2037067E0,2.8626623E0,4.576755E0,2.6486259E0,6.090126E-1,2.3407137E0,0E0,0E0,0E0,0E0,0E0,0E0,0E0,0E0,0E0,0E0,0E0,0E0,0E0,0E0,0E0,0E0,0E0,0E0,0E0,0E0,0E0,0E0,0E0,0E0,0E0,0E0,0E0,0E0,0E0,0E0,0E0,0E0,0E0,0E0,0E0,0E0,0E0],"parents":[2147483647,0,0,1,1,2,2,3,3,4,4,5,5,6,6,7,7,8,8,10,10,11,11,12,12,13,13,14,14,15,15,16,16,17,17,18,18,20,20,21,21,22,22,23,23,24,24,25,25,26,26,27,27,28,28,29,29,30,30,33,33,34,34,39,39,40,40,42,42,43,43,44,44,45,45,46,46,47,47,48,48,49,49,50,50,51,51,52,52,53,53],"right_children":[2,4,6,8,10,12,14,16,18,-1,20,22,24,26,28,30,32,34,36,-1,38,40,42,44,46,48,50,52,54,56,58,-1,-1,60,62,-1,-1,-1,-1,64,66,-1,68,70,72,74,76,78,80,82,84,86,88,90,-1,-1,-1,-1,-1,-1,-1,-1,-1,-1,-1,-1,-1,-1,-1,-1,-1,-1,-1,-1,-1,-1,-1,-1,-1,-1,-1,-1,-1,-1,-1,-1,-1,-1,-1,-1,-1],"split_conditions":[2.9396218E-1,9.682367E-1,4.214201E-1,-2.3787E4,-2.3643E4,1E0,7.9379406E5,8.08819E5,1.2622705E6,-1.9575436E-1,8.562884E-2,2.1954216E5,3.9639538E5,6.7357525E5,8.281177E-1,2.3424695E-1,4.883737E-1,6.936925E-3,1E0,7.057171E-2,9.8490244E-1,3.7339847E5,7.6807E-2,1.6898098E5,-1.6994E4,1.775612E5,1E0,4.96234E-1,9.887217E5,1.9699545E-1,-2.4696E4,-2.6599875E-1,-4.9060903E-2,1.9906942E5,8.115972E-1,3.8021415E-1,9.4238155E-2,4.7577652E-1,1.6632593E-1,7.952373E4,2.5476426E-2,-2.906803E-1,2.4767147E5,3.7339847E5,8.656739E-1,-2.0563E4,-1.4865E4,3.1680036E-1,1E0,-2.2426E4,2.0767616E5,4.670352E-1,2.6566853E5,7.02256E-1,-2.0720066E-1,1.2635769E-1,5.066454E-1,-1.4382769E-1,1.2035973E-1,3.9180464E-1,-6.6358508E-3,2.5181968E-2,-7.109512E-2,-1.8755636E-1,1.0089699E-1,2.6540133E-1,-1.3364795E-1,2.4020252E-1,-1.5607134E-3,9.364097E-2,-2.347993E-1,-3.0442303E-1,1.7667308E-2,1.0195925E-1,-1.5174854E-1,2.8478494E-1,1.01965986E-1,7.789018E-2,-2.6431683E-1,-1.3563983E-1,-3.7726805E-2,1.2048154E-1,-1.8358803E-1,4.099831E-1,-3.9861828E-2,-2.5326726E-1,1.6850266E-1,-3.189581E-1,-1.12992E-1,2.9979318E-1,-1.02465145E-1],"split_indices":[5,3,4,0,0,6,2,2,2,0,5,1,2,2,3,5,3,5,12,0,3,2,3,1,0,2,13,4,2,5,0,0,0,1,3,0,0,0,0,1,3,0,1,2,3,0,0,5,6,0,1,4,1,5,0,0,0,0,0,0,0,0,0,0,0,0,0,0,0,0,0,0,0,0,0,0,0,0,0,0,0,0,0,0,0,0,0,0,0,0,0],"split_type":[0,0,0,0,0,0,0,0,0,0,0,0,0,0,0,0,0,0,0,0,0,0,0,0,0,0,0,0,0,0,0,0,0,0,0,0,0,0,0,0,0,0,0,0,0,0,0,0,0,0,0,0,0,0,0,0,0,0,0,0,0,0,0,0,0,0,0,0,0,0,0,0,0,0,0,0,0,0,0,0,0,0,0,0,0,0,0,0,0,0,0],"sum_hessian":[6.48921E2,2.4815155E2,4.0076944E2,2.4082195E2,7.329609E0,2.2171854E2,1.7905092E2,2.6818804E1,2.1400313E2,1.2046883E0,6.1249204E0,1.0553888E2,1.1617965E2,1.5517902E2,2.3871904E1,2.4068964E1,2.7498393E0,2.1113234E2,2.8707972E0,1.9475613E0,4.177359E0,8.029826E1,2.5240614E1,4.504174E1,7.113791E1,1.3608179E2,1.9097221E1,1.8664652E1,5.2072525E0,2.0449755E1,3.6192088E0,1.6892146E0,1.0606247E0,6.429857E0,2.0470248E2,1.8445009E0,1.0262961E0,2.2310505E0,1.9463087E0,3.0963047E1,4.9335217E1,2.383802E0,2.2856812E1,3.385755E1,1.118419E1,3.15499E1,3.9588013E1,1.1194419E1,1.24887375E2,1.1453073E1,7.644149E0,3.6931138E0,1.4971538E1,3.6617675E0,1.5454849E0,1.6328932E1,4.120824E0,2.4456403E0,1.1735685E0,3.111083E0,3.3187737E0,1.6684819E2,3.7854298E1,5.84755E0,2.5115498E1,1.310136E0,4.802508E1,1.23539715E1,1.050284E1,3.1012491E1,2.8450608E0,9.917372E0,1.2668178E0,2.0732767E1,1.0817134E1,8.125233E0,3.1462778E1,1.0224293E0,1.0171989E1,5.113856E1,7.374881E1,3.1755328E0,8.27754E0,4.7460237E0,2.8981252E0,2.332024E0,1.36109E0,1.1874813E1,3.0967243E0,2.0844185E0,1.577349E0],"tree_param":{"num_deleted":"0","num_feature":"14","num_nodes":"91","size_leaf_vector":"1"}},{"base_weights":[-1.7360212E-2,5.7502225E-2,-1.5836175E-1,1.0820753E-1,-1.3830516E-1,-7.9540916E-2,-4.409816E-1,4.065585E-2,2.8735572E-1,-4.236619E-1,-3.266728E-2,-6.399832E-1,-4.800419E-2,1.4334095E-1,-4.851255E-1,7.943353E-2,-3.6043197E-1,1.0680478E0,2.1493869E-1,2.3107524E-1,-6.101418E-1,7.893662E-1,-1.3920043E-1,-8.5607216E-2,-8.9206964E-1,1.3860466E-1,-1.6909905E-1,-8.998482E-1,-3.4629747E-1,4.34704E-1,3.785156E-2,2.5852668E-1,-4.8409566E-1,1.2879072E0,-5.1296715E-2,1.2917507E-1,9.7659224E-1,8.183946E-1,-2.322446E-1,-7.2296184E-1,7.7556275E-2,-1.08140565E-1,1.0761365E0,5.827222E-1,-2.0806246E-1,-2.1202275E-1,1.3488689E-1,-5.848925E-2,-3.003509E-1,-5.662722E-1,2.102843E-1,-4.8173568E-1,-8.1897795E-2,-2.9414636E-1,-1.7645637E-2,-1.6944651E-1,-6.9175243E-1,-2.5336621E-2,2.7063134E-1,-2.5256473E-1,2.3703227E-2,-1.8942925E-1,1.3407762E-1,1.1616283E-1,4.50178E-1,7.920809E-2,-5.761216E-2,-2.0595203E-1,3.9120713E-1,3.7382156E-1,-5.3287677E-2,-8.1978515E-3,-2.699715E-1,-6.793246E-2,4.1274074E-1,2.727962E-1,-7.752415E-2,-1.02071986E-1,7.125778E-2,-2.186857E-1,-2.732217E-2,8.57588E-2,-1.2584892E-1,-2.8670418E-1,-7.1208472E-3,1.8727449E-1,-3.835517E-2,5.856823E-2,-1.4210951E-1,-2.7048618E-1,7.2960965E-2],"categories":[],"categories_nodes":[],"categories_segments":[],"categories_sizes":[],"default_left":[0,0,0,0,0,0,0,0,0,0,0,0,0,0,0,0,0,0,0,0,0,0,0,0,0,0,0,0,0,0,0,0,0,0,0,0,0,0,0,0,0,0,0,0,0,0,0,0,0,0,0,0,0,0,0,0,0,0,0,0,0,0,0,0,0,0,0,0,0,0,0,0,0,0,0,0,0,0,0,0,0,0,0,0,0,0,0,0,0,0,0],"id":6,"left_children":[1,3,5,7,9,11,13,15,17,19,21,23,25,-1,27,29,31,33,35,37,39,41,43,45,47,49,51,53,55,57,59,-1,61,63,-1,65,67,69,-1,71,-1,-1,73,75,77,-1,-1,-1,-1,79,81,83,85,-1,-1,87,89,-1,-1,-1,-1,-1,-1,-1,-1,-1,-1,-1,-1,-1,-1,-1,-1,-1,-1,-1,-1,-1,-1,-1,-1,-1,-1,-1,-1,-1,-1,-1,-1,-1,-1],"loss_changes":[6.7639503E0,4.172303E0,4.9145913E0,4.020156E0,2.5956912E0,3.0615993E0,2.1881323E0,3.8096178E0,4.9186544E0,2.986422E0,5.7375875E0,1.2148702E0,3.7908661E0,0E0,2.3667593E0,3.2703214E0,3.6835783E0,2.2573118E0,5.3990545E0,4.1118474E0,1.9914689E0,2.8684192E0,2.9916644E0,1.6456702E0,2.7978897E-1,3.461886E0,2.7292707E0,6.911545E-1,2.1113925E0,5.7098556E0,7.3181553E0,0E0,3.0621686E0,6.5804005E-1,0E0,3.3936996E0,5.4737835E0,2.0125103E0,0E0,2.0137796E0,0E0,0E0,2.7597103E0,1.6885263E0,3.2287693E0,0E0,0E0,0E0,0E0,4.2664552E-1,3.01307E0,4.7406816E0,2.6956978E0,0E0,0E0,2.9163704E0,2.5791845E0,0E0,0E0,0E0,0E0,0E0,0E0,0E0,0E0,0E0,0E0,0E0,0E0,0E0,0E0,0E0,0E0,0E0,0E0,0E0,0E0,0E0,0E0,0E0,0E0,0E0,0E0,0E0,0E0,0E0,0E0,0E0,0E0,0E0,0E0],"parents":[2147483647,0,0,1,1,2,2,3,3,4,4,5,5,6,6,7,7,8,8,9,9,10,10,11,11,12,12,14,14,15,15,16,16,17,17,18,18,19,19,20,20,21,21,22,22,23,23,24,24,25,25,26,26,27,27,28,28,29,29,30,30,32,32,33,33,35,35,36,36,37,37,39,39,42,42,43,43,44,44,49,49,50,50,51,51,52,52,55,55,56,56],"right_children":[2,4,6,8,10,12,14,16,18,20,22,24,26,-1,28,30,32,34,36,38,40,42,44,46,48,50,52,54,56,58,60,-1,62,64,-1,66,68,70,-1,72,-1,-1,74,76,78,-1,-1,-1,-1,80,82,84,86,-1,-1,88,90,-1,-1,-1,-1,-1,-1,-1,-1,-1,-1,-1,-1,-1,-1,-1,-1,-1,-1,-1,-1,-1,-1,-1,-1,-1,-1,-1,-1,-1,-1,-1,-1,-1,-1],"split_conditions":[5.659777E-1,7.517155E-1,6.4523005E-1,7.3581976E-1,3.1902247E5,1.7167789E5,5.737208E-1,2.4767147E5,-2.4146E4,1.4453025E5,3.5715488E5,1.3275431E-1,1.6076533E5,1.4334095E-1,2.9966612E5,4.643406E-2,3.27177E5,5.4846907E-1,4.8624906E-1,-1.4713E4,-1.0322E4,9.408243E4,1.1785139E5,5.055634E-1,1.7293337E-1,8.276854E-2,6.4808166E-1,9.5452774E-1,8.704034E-1,4.4029597E5,7.0274055E-2,2.5852668E-1,1.2622705E6,1.350149E5,-5.1296715E-2,4.7371343E-1,-2.2999E4,3.1680036E-1,-2.322446E-1,-2.3486E4,7.7556275E-2,-1.08140565E-1,3.27177E5,-1.5065E4,9.5111275E-1,-2.1202275E-1,1.3488689E-1,-5.848925E-2,-3.003509E-1,8.602658E-1,6.134151E5,6.291357E5,2.3411853E5,-2.9414636E-1,-1.7645637E-2,-1.7212E4,-1.039E4,-2.5336621E-2,2.7063134E-1,-2.5256473E-1,2.3703227E-2,-1.8942925E-1,1.3407762E-1,1.1616283E-1,4.50178E-1,7.920809E-2,-5.761216E-2,-2.0595203E-1,3.9120713E-1,3.7382156E-1,-5.3287677E-2,-8.1978515E-3,-2.699715E-1,-6.793246E-2,4.1274074E-1,2.727962E-1,-7.752415E-2,-1.02071986E-1,7.125778E-2,-2.186857E-1,-2.732217E-2,8.57588E-2,-1.2584892E-1,-2.8670418E-1,-7.1208472E-3,1.8727449E-1,-3.835517E-2,5.856823E-2,-1.4210951E-1,-2.7048618E-1,7.2960965E-2],"split_indices":[5,4,4,3,2,2,5,1,0,2,2,4,1,0,2,5,2,4,5,0,0,1,1,3,3,3,5,4,5,2,5,0,2,1,0,4,0,5,0,0,0,0,2,0,4,0,0,0,0,5,2,2,2,0,0,0,0,0,0,0,0,0,0,0,0,0,0,0,0,0,0,0,0,0,0,0,0,0,0,0,0,0,0,0,0,0,0,0,0,0,0],"split_type":[0,0,0,0,0,0,0,0,0,0,0,0,0,0,0,0,0,0,0,0,0,0,0,0,0,0,0,0,0,0,0,0,0,0,0,0,0,0,0,0,0,0,0,0,0,0,0,0,0,0,0,0,0,0,0,0,0,0,0,0,0,0,0,0,0,0,0,0,0,0,0,0,0,0,0,0,0,0,0,0,0,0,0,0,0,0,0,0,0,0,0],"sum_hessian":[6.389228E2,4.1772876E2,2.21194E2,3.321613E2,8.556747E1,1.7395932E2,4.7234676E1,2.4209943E2,9.006187E1,2.2305017E1,6.3262447E1,8.239583E0,1.6571974E2,1.7150433E0,4.5519634E1,2.2148767E2,2.0611755E1,6.477932E0,8.358394E1,4.891535E0,1.7413483E1,6.5226493E0,5.6739796E1,2.9942884E0,5.245295E0,6.516106E1,1.00558685E2,1.0041322E1,3.5478313E1,2.221675E1,1.9927092E2,1.3454937E0,1.9266262E1,5.468192E0,1.0097398E0,7.617598E1,7.4079595E0,3.2048843E0,1.6866505E0,1.5560278E1,1.8532045E0,1.2507287E0,5.2719207E0,4.291127E0,5.244867E1,1.237603E0,1.7566855E0,1.0869762E0,4.158319E0,5.377752E0,5.9783306E1,2.0944263E1,7.961442E1,9.011466E0,1.029856E0,2.4451305E1,1.1027008E1,1.0913746E1,1.1303003E1,8.0368805E0,1.9123404E2,1.6911745E1,2.3545158E0,1.583374E0,3.884818E0,5.3777348E1,2.239863E1,1.0381776E0,6.369782E0,2.066505E0,1.1383792E0,3.3894398E0,1.2170837E1,1.031703E0,4.2402177E0,3.0325704E0,1.2585571E0,4.0632145E1,1.18165245E1,3.6084378E0,1.7693143E0,5.3865177E1,5.9181304E0,9.75893E0,1.1185332E1,4.0954833E0,7.5518936E1,1.1284329E1,1.3166975E1,9.034665E0,1.9923432E0],"tree_param":{"num_deleted":"0","num_feature":"14","num_nodes":"91","size_leaf_vector":"1"}},{"base_weights":[-1.6357273E-2,2.0209644E-2,-2.1945679E-1,5.122832E-2,-2.5831738E-1,-7.973865E-1,-1.5618187E-1,7.303534E-2,-2.7149513E-1,4.038615E-1,-3.572315E-1,-2.9240453E-1,3.6744278E-2,-6.768991E-1,-9.312913E-2,6.521907E-2,7.857802E-1,-4.1487646E-1,2.9326108E-1,-1.5340142E-1,7.297484E-1,1.9880994E-1,-4.676444E-1,1.5956702E-2,-8.051814E-1,2.5158417E-1,-1.2639429E-1,5.5021353E-2,5.5355674E-1,1.1129859E-2,4.4826233E-1,8.554796E-2,-5.868491E-1,-3.5453913E-1,1.0918462E0,1.0087488E0,-2.0001814E-2,6.9120455E-1,-5.484051E-1,-8.146081E-1,-2.8446174E-1,-2.989041E-1,-5.4901578E-3,-1.9616087E-1,3.4251505E-1,1.4102235E-2,1.9949017E-1,-2.8274871E-2,3.1420648E-1,-2.1296903E-1,2.4142283E-1,1.6621529E-1,-1.6950488E-1,-8.987746E-2,-3.0750436E-1,-2.732207E-1,7.7096716E-2,6.372924E-2,4.1681585E-1,4.2209294E-1,4.7040656E-2,-1.3545884E-1,3.7090588E-1,-2.35624E-1,1.8397758E-2,-2.997916E-1,9.859267E-2,2.1171589E-1,-1.1334011E-1,3.1825292E-1,-7.029296E-2,2.691297E-1,-1.1597008E-1],"categories":[],"categories_nodes":[],"categories_segments":[],"categories_sizes":[],"default_left":[0,0,0,0,0,0,0,0,0,0,0,0,0,0,0,0,0,0,0,0,0,0,0,0,0,0,0,0,0,0,0,0,0,0,0,0,0,0,0,0,0,0,0,0,0,0,0,0,0,0,0,0,0,0,0,0,0,0,0,0,0,0,0,0,0,0,0,0,0,0,0,0,0],"id":7,"left_children":[1,3,5,7,9,11,13,15,17,19,21,-1,-1,23,25,27,29,31,33,-1,35,37,39,-1,41,-1,43,45,47,49,-1,51,53,55,57,59,-1,61,63,65,67,-1,-1,69,71,-1,-1,-1,-1,-1,-1,-1,-1,-1,-1,-1,-1,-1,-1,-1,-1,-1,-1,-1,-1,-1,-1,-1,-1,-1,-1,-1,-1],"loss_changes":[4.6881638E0,4.638429E0,3.3972464E0,3.4157743E0,3.6688688E0,1.6295896E0,2.8277617E0,2.471226E0,2.6120157E0,2.598968E0,2.9999037E0,0E0,0E0,9.185548E-1,2.5761454E0,2.2053576E0,2.629097E0,2.1966467E0,3.91158E0,0E0,1.3816421E0,3.5233617E0,2.2980413E0,0E0,1.1874042E0,0E0,2.6129403E0,2.1238418E0,3.0011542E0,2.4655519E0,0E0,2.5233355E0,2.045309E0,1.7702298E0,5.674057E-1,1.2866373E0,0E0,4.042966E0,6.193088E-1,3.119151E0,2.8161893E0,0E0,0E0,3.527392E0,4.5691757E0,0E0,0E0,0E0,0E0,0E0,0E0,0E0,0E0,0E0,0E0,0E0,0E0,0E0,0E0,0E0,0E0,0E0,0E0,0E0,0E0,0E0,0E0,0E0,0E0,0E0,0E0,0E0,0E0],"parents":[2147483647,0,0,1,1,2,2,3,3,4,4,5,5,6,6,7,7,8,8,9,9,10,10,13,13,14,14,15,15,16,16,17,17,18,18,20,20,21,21,22,22,24,24,26,26,27,27,28,28,29,29,31,31,32,32,33,33,34,34,35,35,37,37,38,38,39,39,40,40,43,43,44,44],"right_children":[2,4,6,8,10,12,14,16,18,20,22,-1,-1,24,26,28,30,32,34,-1,36,38,40,-1,42,-1,44,46,48,50,-1,52,54,56,58,60,-1,62,64,66,68,-1,-1,70,72,-1,-1,-1,-1,-1,-1,-1,-1,-1,-1,-1,-1,-1,-1,-1,-1,-1,-1,-1,-1,-1,-1,-1,-1,-1,-1,-1,-1],"split_conditions":[7.8833663E-1,8.599489E-1,8.062637E-1,-8.468E3,4.643406E-2,1E0,2.234311E5,7.784673E-1,8.329165E-1,2.360321E5,-2.2932E4,-2.9240453E-1,3.6744278E-2,5.4198228E-2,-2.5252E4,8.3673435E-1,6.658982E5,1.4351614E-1,-7.883E3,-1.5340142E-1,1.9906942E5,5.716033E-1,-1.8422E4,1.5956702E-2,1E0,2.5158417E-1,-9.187E3,1.2622705E6,1E0,-1.1875E4,4.4826233E-1,6.358735E-1,4.4494578E-1,1E0,1.8532233E5,4.951214E5,-2.0001814E-2,1.4839476E-1,1E0,2.3242134E5,-1.7563E4,-2.989041E-1,-5.4901578E-3,2.3196739E5,1.9906942E5,1.4102235E-2,1.9949017E-1,-2.8274871E-2,3.1420648E-1,-2.1296903E-1,2.4142283E-1,1.6621529E-1,-1.6950488E-1,-8.987746E-2,-3.0750436E-1,-2.732207E-1,7.7096716E-2,6.372924E-2,4.1681585E-1,4.2209294E-1,4.7040656E-2,-1.3545884E-1,3.7090588E-1,-2.35624E-1,1.8397758E-2,-2.997916E-1,9.859267E-2,2.1171589E-1,-1.1334011E-1,3.1825292E-1,-7.029296E-2,2.691297E-1,-1.1597008E-1],"split_indices":[5,4,5,0,5,9,2,5,3,2,0,0,0,4,0,4,2,5,0,0,1,3,0,0,9,0,0,2,6,0,0,3,3,12,1,2,0,3,9,1,0,0,0,2,1,0,0,0,0,0,0,0,0,0,0,0,0,0,0,0,0,0,0,0,0,0,0,0,0,0,0,0,0],"split_type":[0,0,0,0,0,0,0,0,0,0,0,0,0,0,0,0,0,0,0,0,0,0,0,0,0,0,0,0,0,0,0,0,0,0,0,0,0,0,0,0,0,0,0,0,0,0,0,0,0,0,0,0,0,0,0,0,0,0,0,0,0,0,0,0,0,0,0,0,0,0,0,0,0],"sum_hessian":[6.296588E2,5.3435223E2,9.5306595E1,4.8154065E2,5.281158E1,8.260086E0,8.704651E1,4.517863E2,2.9754345E1,6.462894E0,4.6348686E1,6.8753433E0,1.3847427E0,8.350335E0,7.8696175E1,4.479652E2,3.8210752E0,2.3941439E1,5.8129077E0,1.5476129E0,4.915281E0,7.5460463E0,3.880264E1,1.3354301E0,7.0149055E0,1.8782141E0,7.6817955E1,4.3989185E2,8.073376E0,2.3104062E0,1.510669E0,6.2518067E0,1.768963E1,3.5164542E0,2.2964537E0,3.4426558E0,1.4726253E0,4.5938087E0,2.9522374E0,1.2216522E1,2.6586117E1,5.429629E0,1.5852767E0,6.737521E1,9.442741E0,4.3525027E2,4.6415606E0,3.8421073E0,4.2312684E0,1.2658354E0,1.0445708E0,3.7207017E0,2.531105E0,1.1701781E1,5.9878497E0,1.5853081E0,1.931146E0,1.0138509E0,1.2826028E0,1.9020782E0,1.5405777E0,1.5391629E0,3.0546458E0,1.9184045E0,1.0338329E0,1.0625787E1,1.5907351E0,1.7250537E0,2.4861063E1,1.1949189E0,6.61803E1,5.232293E0,4.2104483E0],"tree_param":{"num_deleted":"0","num_feature":"14","num_nodes":"73","size_leaf_vector":"1"}},{"base_weights":[-1.2400397E-2,5.9841204E-2,-9.135984E-2,-5.6054615E-3,1.7896584E-1,6.64513E-2,-1.7077474E-1,2.3952636E-1,-8.874021E-2,1.3365961E-2,3.3796093E-1,-5.053878E-1,1.6250461E-1,-1.1975818E-1,-7.624749E-1,-4.65803E-1,3.438262E-1,5.9004195E-2,-3.6552453E-1,5.263415E-1,-1.636133E-1,-5.1926833E-1,4.0281388E-1,1.0474394E-1,-6.571106E-1,2.5666243E-1,-1.1880665E-1,-2.694928E-1,2.6261166E-2,-8.406727E-1,-3.6896005E-2,2.1955511E-1,-3.0547357E-1,3.9689496E-2,6.264145E-1,-2.5078857E-1,2.4793048E-1,2.795587E-1,-4.3905428E-1,8.8235706E-1,-1.2259328E-1,-2.5013152E-1,9.2022496E-1,4.905985E-2,-2.7210683E-1,4.308361E-2,6.02038E-1,-1.2070224E-1,1.6277549E-1,-3.09652E-1,-3.6362797E-1,-2.9051253E-1,3.493772E-1,8.179646E-1,-3.057859E-1,1.9902715E-2,-4.1606423E-1,2.954802E-1,-5.244205E-3,-9.214218E-1,-3.323943E-2,1.6094139E-1,-6.737534E-2,1.6002351E-1,-5.377611E-2,7.874751E-2,2.9516467E-1,1.6717653E-1,-1.1572249E-1,2.0669848E-1,1.8198659E-3,-1.7031567E-1,9.870108E-3,3.466535E-1,-3.5499983E-2,-1.5512091E-1,1.5441754E-1,8.1409246E-2,-1.3928577E-1,2.5154574E-2,4.0086278E-1,-1.5451941E-1,7.15139E-2,5.222863E-1,1.384439E-1,-1.570549E-1,1.597737E-1,2.1427317E-1,5.292057E-2,-1.0225491E-1,3.9776435E-1,-1.2447823E-2,-3.0427015E-1,5.0601605E-2,-2.2721459E-1,-2.4806716E-1,-9.74516E-2,1.6639838E-1,-1.4162166E-2,-8.84173E-2,-2.9305035E-1],"categories":[],"categories_nodes":[],"categories_segments":[],"categories_sizes":[],"default_left":[0,0,0,0,0,0,0,0,0,0,0,0,0,0,0,0,0,0,0,0,0,0,0,0,0,0,0,0,0,0,0,0,0,0,0,0,0,0,0,0,0,0,0,0,0,0,0,0,0,0,0,0,0,0,0,0,0,0,0,0,0,0,0,0,0,0,0,0,0,0,0,0,0,0,0,0,0,0,0,0,0,0,0,0,0,0,0,0,0,0,0,0,0,0,0,0,0,0,0,0,0],"id":8,"left_children":[1,3,5,7,9,11,13,15,17,19,21,23,25,27,29,31,33,35,37,39,41,43,45,47,49,51,53,55,57,59,-1,61,-1,63,65,67,69,-1,71,73,75,77,79,-1,-1,81,83,-1,-1,85,-1,-1,87,89,91,93,95,-1,97,99,-1,-1,-1,-1,-1,-1,-1,-1,-1,-1,-1,-1,-1,-1,-1,-1,-1,-1,-1,-1,-1,-1,-1,-1,-1,-1,-1,-1,-1,-1,-1,-1,-1,-1,-1,-1,-1,-1,-1,-1,-1],"loss_changes":[3.569407E0,2.549481E0,3.7575102E0,4.3404512E0,3.048102E0,5.6179986E0,5.919683E0,4.128724E0,6.5235205E0,5.3363676E0,3.4951982E0,1.4331272E0,2.3361902E0,4.0412064E0,6.776991E-1,3.0155888E0,4.063708E0,6.179786E0,5.7011075E0,3.590104E0,4.3336053E0,1.3646553E0,3.9525595E0,1.0614462E0,1.9271684E0,7.7817383E0,4.1934147E0,3.8760543E0,2.8540807E0,7.0808315E-1,0E0,6.995217E-1,0E0,2.6877751E0,2.940898E0,4.587061E0,6.9758554E0,0E0,3.247839E0,2.830285E0,1.8291955E0,4.7396383E0,1.087812E0,0E0,0E0,2.3969815E0,4.903631E0,0E0,0E0,1.8433969E0,0E0,0E0,3.7654858E0,2.8168478E0,3.6081061E0,3.7830477E0,2.0015745E0,0E0,2.195225E0,1.3717937E-1,0E0,0E0,0E0,0E0,0E0,0E0,0E0,0E0,0E0,0E0,0E0,0E0,0E0,0E0,0E0,0E0,0E0,0E0,0E0,0E0,0E0,0E0,0E0,0E0,0E0,0E0,0E0,0E0,0E0,0E0,0E0,0E0,0E0,0E0,0E0,0E0,0E0,0E0,0E0,0E0,0E0],"parents":[2147483647,0,0,1,1,2,2,3,3,4,4,5,5,6,6,7,7,8,8,9,9,10,10,11,11,12,12,13,13,14,14,15,15,16,16,17,17,18,18,19,19,20,20,21,21,22,22,23,23,24,24,25,25,26,26,27,27,28,28,29,29,31,31,33,33,34,34,35,35,36,36,38,38,39,39,40,40,41,41,42,42,45,45,46,46,49,49,52,52,53,53,54,54,55,55,56,56,58,58,59,59],"right_children":[2,4,6,8,10,12,14,16,18,20,22,24,26,28,30,32,34,36,38,40,42,44,46,48,50,52,54,56,58,60,-1,62,-1,64,66,68,70,-1,72,74,76,78,80,-1,-1,82,84,-1,-1,86,-1,-1,88,90,92,94,96,-1,98,100,-1,-1,-1,-1,-1,-1,-1,-1,-1,-1,-1,-1,-1,-1,-1,-1,-1,-1,-1,-1,-1,-1,-1,-1,-1,-1,-1,-1,-1,-1,-1,-1,-1,-1,-1,-1,-1,-1,-1,-1,-1],"split_conditions":[4.1005927E-1,1E0,2.1683891E-1,8.948735E-2,1.7374361E5,2.3904984E5,9.089406E5,1.1188934E-1,5.884827E5,3.0301645E-1,5.7334762E-2,-2.2787E4,1E0,4.709817E5,1.3128108E6,-1.8717E4,1.763914E5,3.6432543E-1,2.9660743E-2,5.642377E-1,3.703442E-1,4.993933E-1,3.9452362E-1,7.1359724E-1,1E0,1.0216331E5,9.535775E4,3.1915447E-1,4.7716078E5,8.8418925E-1,-3.6896005E-2,4.3646503E-2,-3.0547357E-1,1.10654164E5,1E0,2.1222602E5,-2.0208E4,2.795587E-1,8.057985E-1,2.9696152E-1,1E0,-2.0902E4,1E0,4.905985E-2,-2.7210683E-1,1.0161255E-1,4.5037124E-1,-1.2070224E-1,1.6277549E-1,9.507243E-1,-3.6362797E-1,-2.9051253E-1,1.5711795E5,6.3396996E-1,8.509038E-1,1.9328028E5,4.4184533E-1,2.954802E-1,4.5118153E-1,2.0070045E5,-3.323943E-2,1.6094139E-1,-6.737534E-2,1.6002351E-1,-5.377611E-2,7.874751E-2,2.9516467E-1,1.6717653E-1,-1.1572249E-1,2.0669848E-1,1.8198659E-3,-1.7031567E-1,9.870108E-3,3.466535E-1,-3.5499983E-2,-1.5512091E-1,1.5441754E-1,8.1409246E-2,-1.3928577E-1,2.5154574E-2,4.0086278E-1,-1.5451941E-1,7.15139E-2,5.222863E-1,1.384439E-1,-1.570549E-1,1.597737E-1,2.1427317E-1,5.292057E-2,-1.0225491E-1,3.9776435E-1,-1.2447823E-2,-3.0427015E-1,5.0601605E-2,-2.2721459E-1,-2.4806716E-1,-9.74516E-2,1.6639838E-1,-1.4162166E-2,-8.84173E-2,-2.9305035E-1],"split_indices":[5,13,4,5,1,2,2,4,2,3,4,0,8,2,2,0,1,3,3,4,5,3,3,5,9,1,1,3,2,3,0,5,0,1,6,2,0,0,3,5,8,0,8,0,0,5,3,0,0,5,0,0,1,5,5,1,3,0,5,1,0,0,0,0,0,0,0,0,0,0,0,0,0,0,0,0,0,0,0,0,0,0,0,0,0,0,0,0,0,0,0,0,0,0,0,0,0,0,0,0,0],"split_type":[0,0,0,0,0,0,0,0,0,0,0,0,0,0,0,0,0,0,0,0,0,0,0,0,0,0,0,0,0,0,0,0,0,0,0,0,0,0,0,0,0,0,0,0,0,0,0,0,0,0,0,0,0,0,0,0,0,0,0,0,0,0,0,0,0,0,0,0,0,0,0,0,0,0,0,0,0,0,0,0,0,0,0,0,0,0,0,0,0,0,0,0,0,0,0,0,0,0,0,0,0],"sum_hessian":[6.23797E2,3.2588257E2,2.9791446E2,2.1094374E2,1.1493883E2,9.978588E1,1.9812857E2,5.294588E1,1.5799786E2,5.683104E1,5.8107784E1,1.3737885E1,8.604799E1,1.8350879E2,1.4619783E1,6.374207E0,4.6571674E1,1.0352447E2,5.4473392E1,1.4071289E1,4.275975E1,3.59409E0,5.4513695E1,2.7975533E0,1.0940332E1,6.453506E1,2.1512932E1,9.018428E1,9.332451E1,1.2746514E1,1.8732693E0,3.113804E0,3.2604027E0,2.297991E1,2.3591764E1,3.9093414E1,6.443105E1,2.2956047E0,5.2177788E1,8.854096E0,5.2171936E0,4.0311104E1,2.448647E0,1.5112208E0,2.0828693E0,1.986343E1,3.4650265E1,1.3338443E0,1.463709E0,7.686185E0,3.254148E0,3.8760643E0,6.0658997E1,3.0180066E0,1.8494926E1,3.0610365E1,5.9573917E1,2.0065022E0,9.131801E1,1.1240493E1,1.506022E0,1.6958439E0,1.4179602E0,6.6185713E0,1.636134E1,1.25497265E1,1.1042038E1,5.1468616E0,3.3946552E1,2.2164011E1,4.226704E1,4.0840824E1,1.1336966E1,6.833946E0,2.02015E0,3.3390963E0,1.878097E0,1.165716E1,2.8653944E1,1.2124553E0,1.2361917E0,4.724279E0,1.5139152E1,2.5557284E0,3.2094536E1,6.431482E0,1.2547029E0,1.850216E1,4.2156837E1,1.019938E0,1.9980686E0,1.4240822E1,4.2541037E0,2.6350063E1,4.2603025E0,9.359592E0,5.021433E1,5.5149603E0,8.580305E1,1.4264599E0,9.814033E0],"tree_param":{"num_deleted":"0","num_feature":"14","num_nodes":"101","size_leaf_vector":"1"}},{"base_weights":[-1.1093332E-2,1.990027E-2,-1.6231337E-1,2.8012227E-2,-4.4535592E-1,-2.0355667E-1,3.2490247E-1,9.181274E-2,-2.1646509E-2,-6.217092E-1,5.3515457E-2,-1.0942348E-1,-4.6294305E-1,-4.4923443E-1,6.351963E-1,7.049889E-2,9.0510654E-1,-3.7190095E-1,3.447308E-2,-8.4807056E-1,7.261053E-2,2.020945E-1,-1.8004842E-1,-5.0895013E-2,-6.117195E-1,-5.904166E-1,-4.9821172E-2,-1.8056661E-1,-2.2478068E-2,-9.0286136E-2,1.0031816E0,4.7270026E-2,7.63034E-1,-9.393148E-2,1.4226127E0,-7.2309986E-2,-6.0752195E-1,1.7417738E-1,-7.7083096E-2,-2.948114E-1,-4.9161363E-2,-1.1219315E-1,9.607836E-1,-8.006211E-1,6.82639E-2,-7.494093E-1,-3.162429E-1,-4.8125267E-1,4.281853E-1,1.3984089E-1,-1.7713313E-1,4.7150168E-1,4.8662495E-2,1.8391535E-2,-2.8004438E-1,-1.19009905E-1,4.020845E-1,1.4835729E-1,5.0426865E-1,-1.1425749E-1,4.4914237E-1,-2.7849816E-2,-2.2178067E-1,3.702909E-2,2.05853E-1,-1.2138951E-1,4.8766304E-3,5.4783735E-2,-6.0660288E-2,5.0521135E-1,3.550907E-2,8.329446E-3,-2.949068E-1,2.2488616E-2,-2.628662E-1,-1.5619087E-1,9.780256E-2,-2.3376468E-1,6.426631E-2,-5.1506244E-2,2.3411433E-1],"categories":[],"categories_nodes":[],"categories_segments":[],"categories_sizes":[],"default_left":[0,0,0,0,0,0,0,0,0,0,0,0,0,0,0,0,0,0,0,0,0,0,0,0,0,0,0,0,0,0,0,0,0,0,0,0,0,0,0,0,0,0,0,0,0,0,0,0,0,0,0,0,0,0,0,0,0,0,0,0,0,0,0,0,0,0,0,0,0,0,0,0,0,0,0,0,0,0,0,0,0],"id":9,"left_children":[1,3,5,7,9,11,13,15,17,19,21,23,25,27,29,31,33,35,37,39,-1,-1,-1,41,43,45,47,-1,-1,49,51,53,55,-1,57,59,61,63,65,-1,-1,67,69,71,-1,73,75,77,79,-1,-1,-1,-1,-1,-1,-1,-1,-1,-1,-1,-1,-1,-1,-1,-1,-1,-1,-1,-1,-1,-1,-1,-1,-1,-1,-1,-1,-1,-1,-1,-1],"loss_changes":[2.8861074E0,1.9424357E0,2.170709E0,1.597336E0,8.094326E-1,2.3220582E0,2.3413384E0,3.7598276E0,5.5944057E0,1.4951651E0,1.7115715E0,2.1034842E0,1.3169298E0,1.283102E-1,1.8323488E0,3.4391959E0,3.9434547E0,2.7302155E0,3.8420386E0,3.4094548E-1,0E0,0E0,0E0,4.208321E0,1.3691382E0,6.1065006E-1,1.674529E0,0E0,0E0,1.141589E0,1.8540168E0,2.9490612E0,5.180975E0,0E0,1.4549541E-1,9.497976E0,1.4138889E0,2.7571979E0,4.2037697E0,0E0,0E0,1.7149986E0,2.1659617E0,9.8414993E-1,0E0,1.2760177E0,1.3337668E0,1.0400615E0,9.5945567E-1,0E0,0E0,0E0,0E0,0E0,0E0,0E0,0E0,0E0,0E0,0E0,0E0,0E0,0E0,0E0,0E0,0E0,0E0,0E0,0E0,0E0,0E0,0E0,0E0,0E0,0E0,0E0,0E0,0E0,0E0,0E0,0E0],"parents":[2147483647,0,0,1,1,2,2,3,3,4,4,5,5,6,6,7,7,8,8,9,9,10,10,11,11,12,12,13,13,14,14,15,15,16,16,17,17,18,18,19,19,23,23,24,24,25,25,26,26,29,29,30,30,31,31,32,32,34,34,35,35,36,36,37,37,38,38,41,41,42,42,43,43,45,45,46,46,47,47,48,48],"right_children":[2,4,6,8,10,12,14,16,18,20,22,24,26,28,30,32,34,36,38,40,-1,-1,-1,42,44,46,48,-1,-1,50,52,54,56,-1,58,60,62,64,66,-1,-1,68,70,72,-1,74,76,78,80,-1,-1,-1,-1,-1,-1,-1,-1,-1,-1,-1,-1,-1,-1,-1,-1,-1,-1,-1,-1,-1,-1,-1,-1,-1,-1,-1,-1,-1,-1,-1,-1],"split_conditions":[7.517155E-1,9.7739404E-1,9.327008E-1,1.6076533E5,1E0,5.242635E-1,8.4371334E-1,7.3028857E-1,1.7333475E5,5.0786334E-1,2.0553105E-1,2.4639402E5,1E0,4.5679578E-1,1E0,1.593339E5,2.911878E5,-1.9591E4,3.4414858E-1,7.7687985E-1,7.261053E-2,2.020945E-1,-1.8004842E-1,2.3376858E5,-8.506E3,1.8262442E5,8.8243526E-1,-1.8056661E-1,-2.2478068E-2,-2.0902E4,9.5782536E-1,7.3771494E5,2.0168996E-1,-9.393148E-2,4.46434E5,-2.0267E4,1.6359242E5,3.1036288E-1,4.6506885E-1,-2.948114E-1,-4.9161363E-2,-2.2932E4,2.3861311E5,4.1632544E5,6.82639E-2,8.865084E-2,8.159721E-1,6.182656E5,1.5485031E5,1.3984089E-1,-1.7713313E-1,4.7150168E-1,4.8662495E-2,1.8391535E-2,-2.8004438E-1,-1.19009905E-1,4.020845E-1,1.4835729E-1,5.0426865E-1,-1.1425749E-1,4.4914237E-1,-2.7849816E-2,-2.2178067E-1,3.702909E-2,2.05853E-1,-1.2138951E-1,4.8766304E-3,5.4783735E-2,-6.0660288E-2,5.0521135E-1,3.550907E-2,8.329446E-3,-2.949068E-1,2.2488616E-2,-2.628662E-1,-1.5619087E-1,9.780256E-2,-2.3376468E-1,6.426631E-2,-5.1506244E-2,2.3411433E-1],"split_indices":[4,5,3,1,13,5,4,4,1,4,4,1,9,5,10,1,2,0,5,3,0,0,0,1,0,1,4,0,0,0,3,2,4,0,2,0,1,5,5,0,0,0,1,2,0,3,3,2,1,0,0,0,0,0,0,0,0,0,0,0,0,0,0,0,0,0,0,0,0,0,0,0,0,0,0,0,0,0,0,0,0],"split_type":[0,0,0,0,0,0,0,0,0,0,0,0,0,0,0,0,0,0,0,0,0,0,0,0,0,0,0,0,0,0,0,0,0,0,0,0,0,0,0,0,0,0,0,0,0,0,0,0,0,0,0,0,0,0,0,0,0,0,0,0,0,0,0,0,0,0,0,0,0,0,0,0,0,0,0,0,0,0,0,0,0],"sum_hessian":[6.140987E2,5.1036438E2,1.0373434E2,5.025421E2,7.8222637E0,9.617521E1,7.559123E0,2.1958061E2,2.829615E2,5.5973454E0,2.2249184E0,7.160947E1,2.456574E1,2.0348084E0,5.5243144E0,2.15032E2,4.5486226E0,3.8299446E1,2.4466203E2,4.44943E0,1.1479152E0,1.1260757E0,1.0988426E0,6.512259E1,6.486881E0,1.8445126E1,6.1206155E0,1.0134758E0,1.0213326E0,2.1130626E0,3.411252E0,2.090871E2,5.9448986E0,1.4739386E0,3.074684E0,1.7436241E1,2.0863207E1,1.08377335E2,1.362847E2,3.3532977E0,1.0961324E0,6.2240505E1,2.8820832E0,5.332655E0,1.1542261E0,1.05777645E1,7.8673615E0,3.2134657E0,2.90715E0,1.0324686E0,1.0805941E0,1.5169407E0,1.8943113E0,2.0706143E2,2.0256705E0,2.0795999E0,3.8652985E0,1.3039298E0,1.7707541E0,1.5204435E1,2.2318058E0,4.599438E0,1.6263767E1,9.973329E1,8.644041E0,2.9483728E1,1.0680097E2,1.4317397E1,4.792311E1,1.0131781E0,1.8689051E0,1.1152897E0,4.2173653E0,1.4647328E0,9.113031E0,6.111701E0,1.7556604E0,2.165351E0,1.0481147E0,1.2650288E0,1.6421212E0],"tree_param":{"num_deleted":"0","num_feature":"14","num_nodes":"81","size_leaf_vector":"1"}},{"base_weights":[-9.141921E-3,3.3201817E-2,-8.669534E-2,-3.2292068E-1,4.2660814E-2,-5.894719E-2,-7.8533083E-1,-7.242568E-1,2.515087E-1,3.2562414E-1,2.1447303E-2,-3.7862742E-1,-2.5341459E-2,-8.425874E-1,-5.8668524E-2,-2.844152E-1,6.595158E-2,-2.7151218E-1,8.4215844E-1,3.674373E-1,1.099239E-1,8.983474E-3,4.1238475E-1,1.3471691E-1,-7.5155884E-1,-1.08420305E-1,1.229219E-1,-2.7995673E-1,-9.028507E-2,3.463622E-1,5.9586562E-2,-1.682783E-1,6.525848E-1,2.306544E-2,-5.207715E-1,8.229293E-1,-3.4888658E-1,-5.34689E-1,9.43529E-1,-9.470257E-1,-3.8083576E-2,-3.8571414E-2,-5.6380916E-1,9.298518E-1,6.966144E-2,4.122876E-3,-2.8767437E-1,2.7546328E-1,-1.3327217E-1,2.489271E-3,1.2786178E-1,-2.0195056E-1,9.398401E-2,1.3143109E-1,3.8690498E-1,-2.5100157E-1,1.2967639E-1,1.4811453E-1,-2.997387E-1,3.4294558E-1,3.9076798E-2,-3.1332758E-1,-3.434091E-2,-1.7073241E-1,1.22992344E-1,7.7421864E-4,-2.279375E-1,-7.7662147E-3,-2.1923211E-1,3.835841E-1,2.6000729E-2,7.5141E-2,-4.14982E-2],"categories":[],"categories_nodes":[],"categories_segments":[],"categories_sizes":[],"default_left":[0,0,0,0,0,0,0,0,0,0,0,0,0,0,0,0,0,0,0,0,0,0,0,0,0,0,0,0,0,0,0,0,0,0,0,0,0,0,0,0,0,0,0,0,0,0,0,0,0,0,0,0,0,0,0,0,0,0,0,0,0,0,0,0,0,0,0,0,0,0,0,0,0],"id":10,"left_children":[1,3,5,7,9,11,13,15,17,19,21,23,25,27,-1,-1,-1,-1,29,-1,31,33,35,37,39,41,43,-1,-1,-1,-1,45,47,49,51,53,55,57,59,61,63,65,67,69,71,-1,-1,-1,-1,-1,-1,-1,-1,-1,-1,-1,-1,-1,-1,-1,-1,-1,-1,-1,-1,-1,-1,-1,-1,-1,-1,-1,-1],"loss_changes":[2.0059793E0,1.3452859E0,4.1352406E0,2.566853E0,2.3096263E0,2.230786E0,1.1072683E-1,1.5494759E0,4.1755567E0,5.0718966E0,1.7508465E0,3.8851886E0,2.3509052E0,6.926775E-2,0E0,0E0,0E0,0E0,5.3973675E-1,0E0,3.5442858E0,2.6228864E0,3.7572827E0,5.4666405E0,1.5817409E0,3.863833E0,2.8843586E0,0E0,0E0,0E0,0E0,2.2919366E0,2.7139373E0,2.031848E0,1.3681729E0,7.8410053E-1,2.1114528E0,3.1933134E0,5.8361816E-1,6.1544037E-1,1.0747728E0,3.1772282E0,1.4335055E0,1.1148069E0,2.4960694E0,0E0,0E0,0E0,0E0,0E0,0E0,0E0,0E0,0E0,0E0,0E0,0E0,0E0,0E0,0E0,0E0,0E0,0E0,0E0,0E0,0E0,0E0,0E0,0E0,0E0,0E0,0E0,0E0],"parents":[2147483647,0,0,1,1,2,2,3,3,4,4,5,5,6,6,7,7,8,8,9,9,10,10,11,11,12,12,13,13,18,18,20,20,21,21,22,22,23,23,24,24,25,25,26,26,31,31,32,32,33,33,34,34,35,35,36,36,37,37,38,38,39,39,40,40,41,41,42,42,43,43,44,44],"right_children":[2,4,6,8,10,12,14,16,18,20,22,24,26,28,-1,-1,-1,-1,30,-1,32,34,36,38,40,42,44,-1,-1,-1,-1,46,48,50,52,54,56,58,60,62,64,66,68,70,72,-1,-1,-1,-1,-1,-1,-1,-1,-1,-1,-1,-1,-1,-1,-1,-1,-1,-1,-1,-1,-1,-1,-1,-1,-1,-1,-1,-1],"split_conditions":[5.2039635E-1,1.2323001E5,2.7455975E5,2.248514E-1,2.028837E5,1.9991367E5,9.5111275E-1,-8.888E3,5.755283E-1,-2.3702E4,9.755238E-1,-2.0208E4,-1.4428E4,3.1701984E5,-5.8668524E-2,-2.844152E-1,6.595158E-2,-2.7151218E-1,1.06575695E5,3.674373E-1,1.846834E5,9.5782536E-1,5.775698E5,-2.2133E4,9.1491526E-1,-1.5988E4,-1.4064E4,-2.7995673E-1,-9.028507E-2,3.463622E-1,5.9586562E-2,9.021611E-1,4.6208167E-1,9.2385536E-1,-9.088E3,4.5447925E5,1E0,1.12245125E5,8.057985E-1,1.4166855E5,1.0310584E5,9.2356926E-1,1.2752959E5,6.686507E-1,5.452921E-1,4.122876E-3,-2.8767437E-1,2.7546328E-1,-1.3327217E-1,2.489271E-3,1.2786178E-1,-2.0195056E-1,9.398401E-2,1.3143109E-1,3.8690498E-1,-2.5100157E-1,1.2967639E-1,1.4811453E-1,-2.997387E-1,3.4294558E-1,3.9076798E-2,-3.1332758E-1,-3.434091E-2,-1.7073241E-1,1.22992344E-1,7.7421864E-4,-2.279375E-1,-7.7662147E-3,-2.1923211E-1,3.835841E-1,2.6000729E-2,7.5141E-2,-4.14982E-2],"split_indices":[4,2,1,4,2,2,4,0,3,0,3,0,0,1,0,0,0,0,2,0,2,3,2,0,4,0,0,0,0,0,0,3,4,3,0,2,13,2,3,1,1,5,1,4,3,0,0,0,0,0,0,0,0,0,0,0,0,0,0,0,0,0,0,0,0,0,0,0,0,0,0,0,0],"split_type":[0,0,0,0,0,0,0,0,0,0,0,0,0,0,0,0,0,0,0,0,0,0,0,0,0,0,0,0,0,0,0,0,0,0,0,0,0,0,0,0,0,0,0,0,0,0,0,0,0,0,0,0,0,0,0,0,0,0,0,0,0,0,0,0,0,0,0,0,0,0,0,0,0],"sum_hessian":[6.089759E2,3.942755E2,2.1470036E2,9.343989E0,3.8493152E2,2.0754167E2,7.158691E0,5.3472214E0,3.9967675E0,2.5844633E1,3.5908688E2,1.8765446E1,1.8877623E2,6.1344643E0,1.0242265E0,4.319187E0,1.0280342E0,1.1711881E0,2.8255794E0,4.095199E0,2.1749434E1,3.489836E2,1.0103282E1,8.164996E0,1.0600449E1,1.2115576E2,6.762047E1,4.6360674E0,1.4983968E0,1.3676472E0,1.4579322E0,1.4834325E1,6.915109E0,3.408788E2,8.104793E0,6.510989E0,3.5922923E0,4.652948E0,3.5120487E0,8.063888E0,2.5365608E0,1.05984276E2,1.5171483E1,3.167794E0,6.4452675E1,1.2856991E1,1.9773343E0,5.6980243E0,1.2170849E0,3.298175E2,1.1061316E1,7.015772E0,1.089021E0,4.6312604E0,1.8797288E0,2.167625E0,1.4246675E0,1.4279722E0,3.2249756E0,2.494211E0,1.0178379E0,6.991483E0,1.0724043E0,1.0371715E0,1.4993893E0,1.0120598E2,4.778295E0,3.867222E0,1.1304261E1,1.875589E0,1.292205E0,3.436997E1,3.0082706E1],"tree_param":{"num_deleted":"0","num_feature":"14","num_nodes":"73","size_leaf_vector":"1"}},{"base_weights":[-8.466221E-3,7.2965026E-2,-4.3117095E-2,6.8060798E-3,3.8917416E-1,1.7899776E-1,-7.7007905E-2,8.9573406E-2,-3.1285205E-1,1.0755403E0,1.8145645E-1,-2.1793854E-1,3.7204435E-1,-6.554074E-2,-8.758148E-1,-6.039078E-1,1.2525311E-1,-6.4338195E-1,1.2207333E-1,1.3590906E0,-4.5083407E-2,6.9762045E-3,1.1364567E0,3.3071995E-2,-6.065011E-1,1.9061776E-1,9.6529007E-1,-4.8285063E-2,-5.715602E-1,-3.1552604E-1,-2.4709933E-2,-3.0013338E-1,-1.00267135E-1,-5.9303206E-1,1.5669186E-1,2.2587852E-1,-9.480771E-1,-2.945005E-1,8.027105E-1,1.3282338E-1,4.6924725E-1,-3.384806E-1,4.0245134E-1,4.9889746E-1,-2.2057763E-3,2.392279E-1,-1.0510556E-1,-8.2925E-1,-3.2508675E-2,3.9110747E-1,-5.794969E-1,-1.1681946E-1,1.4066803E0,-3.782374E-1,-2.4392823E-2,-2.0019652E-2,-7.93827E-1,-1.3479508E-1,8.354233E-2,-2.539041E-1,5.3169254E-2,1.385089E-1,1.9496202E-2,2.5176534E-1,-8.4460676E-2,-3.7450626E-1,-9.282538E-2,-2.522283E-1,3.362112E-2,5.0025916E-1,6.11286E-2,-1.6968417E-1,6.3265674E-2,2.3167619E-1,-1.5856406E-1,-1.3375913E-1,6.030332E-2,-9.143748E-2,-3.1419486E-1,-1.9150199E-1,1.6909128E-1,1.4627355E-1,-1.758398E-1,-2.6948538E-1,1.4994602E-1,4.9596533E-1,1.3491407E-1,-1.4142638E-1,1.5226094E-1,3.4919336E-2,-2.5950309E-2,-1.2492677E-1,1.7633778E-1,-8.700705E-2,-2.840066E-1],"categories":[],"categories_nodes":[],"categories_segments":[],"categories_sizes":[],"default_left":[0,0,0,0,0,0,0,0,0,0,0,0,0,0,0,0,0,0,0,0,0,0,0,0,0,0,0,0,0,0,0,0,0,0,0,0,0,0,0,0,0,0,0,0,0,0,0,0,0,0,0,0,0,0,0,0,0,0,0,0,0,0,0,0,0,0,0,0,0,0,0,0,0,0,0,0,0,0,0,0,0,0,0,0,0,0,0,0,0,0,0,0,0,0,0],"id":11,"left_children":[1,3,5,7,9,11,13,15,17,19,21,23,25,27,29,31,33,35,37,39,-1,41,43,45,47,49,51,53,55,-1,-1,-1,57,59,61,63,65,67,69,-1,-1,71,73,-1,-1,-1,75,77,79,81,83,-1,85,87,89,91,93,-1,-1,-1,-1,-1,-1,-1,-1,-1,-1,-1,-1,-1,-1,-1,-1,-1,-1,-1,-1,-1,-1,-1,-1,-1,-1,-1,-1,-1,-1,-1,-1,-1,-1,-1,-1,-1,-1],"loss_changes":[1.7123818E0,3.7878795E0,3.217279E0,4.019322E0,4.2719445E0,4.42111E0,3.331134E0,3.059885E0,4.5708838E0,2.6638613E0,4.2004876E0,1.8890911E0,3.9571023E0,3.1662064E0,6.329112E-1,1.1126318E0,2.7019362E0,4.959204E0,4.300726E0,4.0612316E-1,0E0,3.1911569E0,2.358233E0,1.4135784E0,9.412384E-1,4.9683385E0,5.7886057E0,2.7877805E0,1.4514384E0,0E0,0E0,0E0,6.2573755E-1,1.1360965E0,3.0881608E0,1.93472E0,2.194625E0,2.2315948E0,2.6182714E0,0E0,0E0,1.6763228E0,4.154865E0,0E0,0E0,0E0,1.2940514E0,3.0004215E-1,1.5003104E0,2.6392648E0,2.7702868E0,0E0,8.6734486E-1,2.2109675E0,2.9124038E0,1.3203111E0,3.804674E-1,0E0,0E0,0E0,0E0,0E0,0E0,0E0,0E0,0E0,0E0,0E0,0E0,0E0,0E0,0E0,0E0,0E0,0E0,0E0,0E0,0E0,0E0,0E0,0E0,0E0,0E0,0E0,0E0,0E0,0E0,0E0,0E0,0E0,0E0,0E0,0E0,0E0,0E0],"parents":[2147483647,0,0,1,1,2,2,3,3,4,4,5,5,6,6,7,7,8,8,9,9,10,10,11,11,12,12,13,13,14,14,15,15,16,16,17,17,18,18,19,19,21,21,22,22,23,23,24,24,25,25,26,26,27,27,28,28,32,32,33,33,34,34,35,35,36,36,37,37,38,38,41,41,42,42,46,46,47,47,48,48,49,49,50,50,52,52,53,53,54,54,55,55,56,56],"right_children":[2,4,6,8,10,12,14,16,18,20,22,24,26,28,30,32,34,36,38,40,-1,42,44,46,48,50,52,54,56,-1,-1,-1,58,60,62,64,66,68,70,-1,-1,72,74,-1,-1,-1,76,78,80,82,84,-1,86,88,90,92,94,-1,-1,-1,-1,-1,-1,-1,-1,-1,-1,-1,-1,-1,-1,-1,-1,-1,-1,-1,-1,-1,-1,-1,-1,-1,-1,-1,-1,-1,-1,-1,-1,-1,-1,-1,-1,-1,-1],"split_conditions":[2.1683891E-1,2.2796712E5,8.948735E-2,6.8341956E5,-2.0267E4,1.522723E5,-7.513E3,1.2964722E5,-1.4271E4,1.0326939E6,1.9825685E-1,1.280452E5,7.0274055E-2,2.7738678E5,1.889469E5,1E0,-2.4923E4,-2.3198E4,8.694367E5,1E0,-4.5083407E-2,4.7888136E-1,6.24018E-1,1.3606066E-1,7.841185E-1,2.4037267E5,-2.2787E4,1.2565576E-1,3.4599236E-1,-3.1552604E-1,-2.4709933E-2,-3.0013338E-1,-1.5756E4,6.690837E-1,-2.17E4,4.8114616E-1,6.0012734E-1,1E0,1.0134513E-1,1.3282338E-1,4.6924725E-1,9.887217E5,-1.0016E4,4.9889746E-1,-2.2057763E-3,2.392279E-1,1.00918195E5,5.076271E-2,3.0727628E5,-9.159E3,2.7738678E5,-1.1681946E-1,7.9159844E-1,-9.604E3,2.9396218E-1,3.2177868E-1,5.551904E5,-1.3479508E-1,8.354233E-2,-2.539041E-1,5.3169254E-2,1.385089E-1,1.9496202E-2,2.5176534E-1,-8.4460676E-2,-3.7450626E-1,-9.282538E-2,-2.522283E-1,3.362112E-2,5.0025916E-1,6.11286E-2,-1.6968417E-1,6.3265674E-2,2.3167619E-1,-1.5856406E-1,-1.3375913E-1,6.030332E-2,-9.143748E-2,-3.1419486E-1,-1.9150199E-1,1.6909128E-1,1.4627355E-1,-1.758398E-1,-2.6948538E-1,1.4994602E-1,4.9596533E-1,1.3491407E-1,-1.4142638E-1,1.5226094E-1,3.4919336E-2,-2.5950309E-2,-1.2492677E-1,1.7633778E-1,-8.700705E-2,-2.840066E-1],"split_indices":[4,1,5,2,0,1,0,2,0,2,4,1,5,1,1,13,0,0,2,10,0,3,3,3,4,1,0,5,4,0,0,0,0,3,0,5,5,6,3,0,0,2,0,0,0,0,1,5,2,0,1,0,4,0,5,4,2,0,0,0,0,0,0,0,0,0,0,0,0,0,0,0,0,0,0,0,0,0,0,0,0,0,0,0,0,0,0,0,0,0,0,0,0,0,0],"split_type":[0,0,0,0,0,0,0,0,0,0,0,0,0,0,0,0,0,0,0,0,0,0,0,0,0,0,0,0,0,0,0,0,0,0,0,0,0,0,0,0,0,0,0,0,0,0,0,0,0,0,0,0,0,0,0,0,0,0,0,0,0,0,0,0,0,0,0,0,0,0,0,0,0,0,0,0,0,0,0,0,0,0,0,0,0,0,0,0,0,0,0,0,0,0,0],"sum_hessian":[6.0475464E2,1.8019107E2,4.2456354E2,1.4985843E2,3.0332647E1,5.5638206E1,3.6892532E2,1.1960861E2,3.0249817E1,6.076393E0,2.4256254E1,1.8163027E1,3.7475178E1,3.6477097E2,4.1543736E0,5.073464E0,1.1453515E2,1.6915365E1,1.3334452E1,4.8465843E0,1.2298092E0,2.1360886E1,2.8953671E0,1.1590485E1,6.572541E0,2.9710438E1,7.764743E0,3.5380148E2,1.0969495E1,3.133915E0,1.0204588E0,2.2866595E0,2.7868044E0,4.053824E0,1.1048132E2,4.457448E0,1.2457917E1,8.623737E0,4.710714E0,1.463944E0,3.3826401E0,1.1478374E1,9.882512E0,1.6718504E0,1.2235166E0,1.0440584E0,1.0546427E1,4.4146466E0,2.1578946E0,2.3963884E1,5.746553E0,1.9371506E0,5.827592E0,2.2887917E1,3.3091354E2,3.4639645E0,7.5055304E0,1.353277E0,1.4335275E0,2.9762523E0,1.0775714E0,2.4606564E1,8.5874756E1,1.7220278E0,2.7354202E0,7.824459E0,4.6334586E0,3.2240446E0,5.399693E0,1.1975206E0,3.5131931E0,8.099919E0,3.3784547E0,7.1950645E0,2.687448E0,4.774787E0,5.7716393E0,2.0006654E0,2.4139812E0,1.0351502E0,1.1227446E0,2.2266817E1,1.6970661E0,4.5657415E0,1.1808115E0,4.0552926E0,1.7722993E0,2.1132547E1,1.7553681E0,1.010265E2,2.2988705E2,2.2871888E0,1.1767756E0,2.4216194E0,5.083911E0],"tree_param":{"num_deleted":"0","num_feature":"14","num_nodes":"95","size_leaf_vector":"1"}},{"base_weights":[-7.6415637E-3,2.7085212E-3,-2.495132E-1,-5.6633134E-3,3.1591332E-1,2.5423658E-1,-3.4617174E-1,2.0231775E-3,-5.054849E-1,7.08289E-1,-4.7669995E-1,6.475856E-2,-5.0886977E-1,1.504782E-2,-2.0695043E-1,-7.2731274E-1,5.4747768E-2,1.0654626E0,-2.0241136E-2,-6.9096E-1,9.898687E-3,-5.3901404E-1,4.4549873E-1,-2.4715252E-2,-7.0986205E-1,-2.2427274E-2,1.0629682E-1,-1.9508373E-2,-4.892914E-1,8.369008E-2,-2.8851774E-1,5.476483E-1,5.692129E-1,1.8621162E-1,-4.838814E-1,-6.571264E-2,-2.369393E-1,-2.0106615E-1,-3.6122322E-2,6.713502E-1,-6.289758E-2,-5.648168E-1,3.7746608E-1,-8.153761E-1,-1.1240026E-2,-9.3473485E-3,2.4646091E-1,1.8817894E-1,1.9963512E-2,1.407435E-1,-8.439706E-2,-2.4698214E-1,3.331443E-2,3.3898312E-1,-1.3363726E-1,-1.8147844E-1,-3.5298094E-2,4.366757E-2,3.1711268E-1,1.00797534E-1,-2.74313E-1,-2.6069722E-1,-4.9824074E-2],"categories":[],"categories_nodes":[],"categories_segments":[],"categories_sizes":[],"default_left":[0,0,0,0,0,0,0,0,0,0,0,0,0,0,0,0,0,0,0,0,0,0,0,0,0,0,0,0,0,0,0,0,0,0,0,0,0,0,0,0,0,0,0,0,0,0,0,0,0,0,0,0,0,0,0,0,0,0,0,0,0,0,0],"id":12,"left_children":[1,3,5,7,9,-1,11,13,15,17,19,21,23,25,27,29,-1,31,33,35,-1,37,39,41,43,45,47,49,51,-1,-1,53,-1,-1,55,-1,-1,-1,-1,57,-1,59,-1,61,-1,-1,-1,-1,-1,-1,-1,-1,-1,-1,-1,-1,-1,-1,-1,-1,-1,-1,-1],"loss_changes":[1.4986771E0,1.5090309E0,2.8981323E0,2.1557002E0,4.9971933E0,0E0,1.5898435E0,1.5092041E0,1.4296646E0,2.7339287E0,6.29851E-1,1.9623711E0,1.616777E0,1.786746E0,1.7121518E0,1.8314478E0,0E0,1.9820051E0,1.611017E0,1.16683245E-2,0E0,1.0328668E-1,9.01615E-1,4.8424687E0,8.088851E-1,2.7571795E0,3.1078856E0,2.766659E0,2.6856883E0,0E0,0E0,3.8159351E0,0E0,0E0,6.718546E-2,0E0,0E0,0E0,0E0,6.6985285E-1,0E0,1.8459167E0,0E0,2.1002054E-1,0E0,0E0,0E0,0E0,0E0,0E0,0E0,0E0,0E0,0E0,0E0,0E0,0E0,0E0,0E0,0E0,0E0,0E0,0E0],"parents":[2147483647,0,0,1,1,2,2,3,3,4,4,6,6,7,7,8,8,9,9,10,10,11,11,12,12,13,13,14,14,15,15,17,17,18,18,19,19,21,21,22,22,23,23,24,24,25,25,26,26,27,27,28,28,31,31,34,34,39,39,41,41,43,43],"right_children":[2,4,6,8,10,-1,12,14,16,18,20,22,24,26,28,30,-1,32,34,36,-1,38,40,42,44,46,48,50,52,-1,-1,54,-1,-1,56,-1,-1,-1,-1,58,-1,60,-1,62,-1,-1,-1,-1,-1,-1,-1,-1,-1,-1,-1,-1,-1,-1,-1,-1,-1,-1,-1],"split_conditions":[9.358265E-1,9.025974E-1,2.285577E-2,8.8374794E-1,1E0,2.5423658E-1,1.3164339E5,-8.468E3,8.379992E-1,1E0,1.7602017E5,1E0,3.1375882E-1,-1.3729E4,4.6208167E-1,-2.4226E4,5.4747768E-2,-1.2455E4,3.9844225E5,3.1383844E5,9.898687E-3,6.789945E-1,1E0,2.7144155E-1,2.4405972E5,8.730483E-1,-1.3463E4,1.4111128E5,6.45079E5,8.369008E-2,-2.8851774E-1,-2.001E4,5.692129E-1,1.8621162E-1,-1.2455E4,-6.571264E-2,-2.369393E-1,-2.0106615E-1,-3.6122322E-2,-1.4064E4,-6.289758E-2,5.6994185E-2,3.7746608E-1,9.2762035E-1,-1.1240026E-2,-9.3473485E-3,2.4646091E-1,1.8817894E-1,1.9963512E-2,1.407435E-1,-8.439706E-2,-2.4698214E-1,3.331443E-2,3.3898312E-1,-1.3363726E-1,-1.8147844E-1,-3.5298094E-2,4.366757E-2,3.1711268E-1,1.00797534E-1,-2.74313E-1,-2.6069722E-1,-4.9824074E-2],"split_indices":[5,5,4,5,8,0,1,0,3,12,1,6,3,0,4,0,0,0,2,2,0,3,9,3,1,5,0,1,2,0,0,0,0,0,0,0,0,0,0,0,0,3,0,3,0,0,0,0,0,0,0,0,0,0,0,0,0,0,0,0,0,0,0],"split_type":[0,0,0,0,0,0,0,0,0,0,0,0,0,0,0,0,0,0,0,0,0,0,0,0,0,0,0,0,0,0,0,0,0,0,0,0,0,0,0,0,0,0,0,0,0,0,0,0,0,0,0,0,0,0,0,0,0,0,0,0,0,0,0],"sum_hessian":[5.973887E2,5.7382263E2,2.3566013E1,5.598403E2,1.398238E1,1.2793441E0,2.2286669E1,5.5234204E2,7.4982233E0,9.42367E0,4.5587106E0,6.4918985E0,1.579477E1,5.208097E2,3.1532375E1,5.626779E0,1.8714442E0,6.0131454E0,3.410524E0,2.9591455E0,1.5995649E0,2.3498454E0,4.142053E0,4.9629283E0,1.0831841E1,3.697224E2,1.5108725E2,1.959358E1,1.1938796E1,1.0271975E0,4.5995812E0,4.7283454E0,1.2848003E0,1.289343E0,2.121181E0,1.0693799E0,1.8897656E0,1.3314458E0,1.0183996E0,3.061835E0,1.0802181E0,3.886501E0,1.0764271E0,9.178832E0,1.6530101E0,3.6689014E2,2.832287E0,9.66346E0,1.414238E2,6.5593247E0,1.3034255E1,7.4325523E0,4.5062437E0,2.8938084E0,1.834537E0,1.10435E0,1.0168309E0,1.8784496E0,1.1833855E0,1.097383E0,2.789118E0,8.166165E0,1.0126665E0],"tree_param":{"num_deleted":"0","num_feature":"14","num_nodes":"63","size_leaf_vector":"1"}},{"base_weights":[-5.8527263E-3,-6.0702533E-2,3.812366E-2,-4.4092517E-2,-5.5971265E-1,2.8296735E-2,3.1513655E-1,-5.687329E-2,6.850048E-1,-2.6874375E-1,-1.4676106E-1,5.877696E-2,-2.8563687E-1,2.2648977E-1,-8.817515E-2,4.026366E-2,3.2170928E-1,-5.74443E-1,1.5431058E-1,7.46717E-2,-5.6646234E-1,-5.500614E-1,8.5824996E-2,3.5264626E-1,-2.3317866E-1,2.9229868E-2,-1.705754E-1,-3.7896942E-2,-2.1425515E-1,-9.8185726E-2,1.2595245E-1,-8.057877E-1,1.2788677E-1,1.1027271E-1,-7.302906E-1,1.0387518E0,-2.3426966E-1,1.3627267E-1,-8.0293626E-2,-1.217759E-1,2.7029322E-2,-1.6092348E-1,-3.2488424E-2,-1.0546604E-2,-1.8362169E-1,3.167664E-2,2.172622E-1,-3.1242952E-1,-8.662802E-3,-1.6087689E-1,2.4389723E-1,-2.4605319E-1,2.1851238E-2,-6.678794E-2,5.1243234E-1,-2.2126694E-1,5.9185285E-2],"categories":[],"categories_nodes":[],"categories_segments":[],"categories_sizes":[],"default_left":[0,0,0,0,0,0,0,0,0,0,0,0,0,0,0,0,0,0,0,0,0,0,0,0,0,0,0,0,0,0,0,0,0,0,0,0,0,0,0,0,0,0,0,0,0,0,0,0,0,0,0,0,0,0,0,0,0],"id":13,"left_children":[1,3,5,7,9,11,-1,13,15,-1,17,19,21,23,25,-1,-1,27,-1,29,31,33,35,37,-1,39,41,-1,-1,43,45,47,-1,49,51,53,55,-1,-1,-1,-1,-1,-1,-1,-1,-1,-1,-1,-1,-1,-1,-1,-1,-1,-1,-1,-1],"loss_changes":[1.4403057E0,2.1773324E0,3.2679706E0,2.444939E0,1.0444734E0,3.1680765E0,0E0,2.2788503E0,8.2145333E-1,0E0,1.7085656E0,3.0337873E0,2.9267364E0,3.517606E0,2.2306042E0,0E0,0E0,1.2939131E-1,0E0,2.6223187E0,2.1442223E0,2.1347098E0,4.225685E0,1.5988781E0,0E0,2.5721345E0,3.0252743E0,0E0,0E0,2.178639E0,2.6952002E0,1.1512885E0,0E0,2.512104E0,1.0480733E0,3.307338E0,2.4453645E0,0E0,0E0,0E0,0E0,0E0,0E0,0E0,0E0,0E0,0E0,0E0,0E0,0E0,0E0,0E0,0E0,0E0,0E0,0E0,0E0],"parents":[2147483647,0,0,1,1,2,2,3,3,4,4,5,5,7,7,8,8,10,10,11,11,12,12,13,13,14,14,17,17,19,19,20,20,21,21,22,22,23,23,25,25,26,26,29,29,30,30,31,31,33,33,34,34,35,35,36,36],"right_children":[2,4,6,8,10,12,-1,14,16,-1,18,20,22,24,26,-1,-1,28,-1,30,32,34,36,38,-1,40,42,-1,-1,44,46,48,-1,50,52,54,56,-1,-1,-1,-1,-1,-1,-1,-1,-1,-1,-1,-1,-1,-1,-1,-1,-1,-1,-1,-1],"split_conditions":[1E0,9.392855E-1,1.2622705E6,9.258687E-1,9.7739404E-1,8.599489E-1,3.1513655E-1,2.1705531E5,6.394927E-1,-2.6874375E-1,1.9328028E5,2.6566853E5,5.1681722E5,-9.088E3,2.9012588E-1,4.026366E-2,3.2170928E-1,1.2300873E5,1.5431058E-1,2.9791638E5,7.829998E-1,2.4630523E-1,5.801829E5,6.63697E-1,-2.3317866E-1,2.4129666E-2,-2.3129E4,-3.7896942E-2,-2.1425515E-1,-9.334E3,8.246784E-1,8.4415215E-1,1.2788677E-1,1.5602405E5,9.448132E-1,-2.0837E4,9.3797195E-1,1.3627267E-1,-8.0293626E-2,-1.217759E-1,2.7029322E-2,-1.6092348E-1,-3.2488424E-2,-1.0546604E-2,-1.8362169E-1,3.167664E-2,2.172622E-1,-3.1242952E-1,-8.662802E-3,-1.6087689E-1,2.4389723E-1,-2.4605319E-1,2.1851238E-2,-6.678794E-2,5.1243234E-1,-2.2126694E-1,5.9185285E-2],"split_indices":[6,5,2,5,5,4,0,2,3,0,1,1,2,0,5,0,0,1,0,2,3,3,2,5,0,5,0,0,0,0,4,5,0,1,3,0,4,0,0,0,0,0,0,0,0,0,0,0,0,0,0,0,0,0,0,0,0],"split_type":[0,0,0,0,0,0,0,0,0,0,0,0,0,0,0,0,0,0,0,0,0,0,0,0,0,0,0,0,0,0,0,0,0,0,0,0,0,0,0,0,0,0,0,0,0,0,0,0,0,0,0,0,0,0,0,0,0],"sum_hessian":[5.951584E2,2.6466858E2,3.304898E2,2.5719595E2,7.4726453E0,3.283306E2,2.159225E0,2.5367119E2,3.524756E0,3.475035E0,3.9976103E0,3.0001456E2,2.8316032E1,2.461409E1,2.290571E2,2.0113146E0,1.5134412E0,2.5069768E0,1.4906335E0,2.9343546E2,6.5791035E0,1.6260336E1,1.2055696E1,2.2442125E1,2.171965E0,9.47299E1,1.3432721E2,1.0485325E0,1.4584444E0,6.6926056E1,2.265094E2,5.45289E0,1.1262139E0,3.5696824E0,1.2690654E1,2.4668133E0,9.588882E0,1.951372E1,2.928406E0,1.0928963E1,8.3800934E1,1.843388E1,1.15893326E2,6.056581E1,6.3602443E0,2.2019093E2,6.3184586E0,3.922642E0,1.5302477E0,1.9825442E0,1.5871382E0,1.1394181E1,1.2964729E0,1.0865841E0,1.3802291E0,4.09922E0,5.4896626E0],"tree_param":{"num_deleted":"0","num_feature":"14","num_nodes":"57","size_leaf_vector":"1"}},{"base_weights":[-6.247494E-3,9.7690284E-2,-2.3260668E-2,2.0798787E-1,-1.6895486E-1,-7.784931E-2,2.5291622E-2,3.848948E-2,5.032628E-1,-4.7729546E-1,1.9934487E-1,2.3928536E-3,-2.4712063E-1,2.6169845E-1,-2.488983E-2,2.7624887E-1,-2.2054087E-1,-3.1441784E-1,8.1363404E-1,1.6755614E-1,-6.481287E-1,4.4892475E-1,-5.2420557E-1,4.3000158E-2,-4.06246E-1,-3.4387997E-1,1.697102E-1,-4.21777E-1,3.3703417E-1,-5.915236E-1,4.586919E-3,1.18997455E-1,9.1230524E-1,9.976214E-2,-6.994132E-1,-2.9023737E-1,2.1555606E-1,-3.363869E-1,1.0157477E0,-1.121704E0,-1.0959483E-1,-7.0985936E-2,6.452733E-1,2.2659363E-2,-2.4440582E-1,5.3543836E-1,6.4927693E-3,-6.177385E-1,5.689731E-1,-2.782832E-1,-3.145209E-1,5.6666946E-1,-3.4822437E-1,1.4896242E-2,-2.1578811E-1,-4.7704883E-2,5.321418E-1,-8.6028117E-1,1.2750956E-1,5.310089E-2,-2.815582E-1,1.3356254E-1,-7.649918E-2,3.6855346E-1,4.8906628E-2,-9.521159E-2,1.4111647E-1,-4.8644695E-2,-3.1053436E-1,-1.9480659E-1,2.577499E-1,-2.0608595E-1,5.489645E-2,-5.973754E-2,3.551804E-1,-9.2252046E-2,-3.7311885E-1,7.760827E-2,-2.6625896E-1,3.0743694E-1,-3.1280873E-4,3.3766858E-3,3.3134213E-1,-1.4271408E-1,9.642482E-3,-1.5301802E-2,-2.674092E-1,2.5263228E-2,2.406708E-1,1.2021477E-1,-9.8588146E-2,1.3236753E-2,3.7690282E-1,-1.8402663E-1,9.296957E-2,1.2806156E-1,-1.3553569E-1,3.0175367E-1,6.483209E-2,-3.0868337E-1,5.8997784E-2,8.2199484E-2,-1.1458607E-2,-1.1118505E-1,3.040276E-1],"categories":[],"categories_nodes":[],"categories_segments":[],"categories_sizes":[],"default_left":[0,0,0,0,0,0,0,0,0,0,0,0,0,0,0,0,0,0,0,0,0,0,0,0,0,0,0,0,0,0,0,0,0,0,0,0,0,0,0,0,0,0,0,0,0,0,0,0,0,0,0,0,0,0,0,0,0,0,0,0,0,0,0,0,0,0,0,0,0,0,0,0,0,0,0,0,0,0,0,0,0,0,0,0,0,0,0,0,0,0,0,0,0,0,0,0,0,0,0,0,0,0,0,0,0],"id":14,"left_children":[1,3,5,7,9,11,13,15,17,19,21,23,25,27,29,31,33,35,37,-1,39,41,43,45,47,49,51,53,55,57,59,61,63,65,67,-1,69,71,73,75,77,-1,79,-1,-1,81,83,85,87,89,-1,91,93,-1,-1,95,97,99,-1,101,103,-1,-1,-1,-1,-1,-1,-1,-1,-1,-1,-1,-1,-1,-1,-1,-1,-1,-1,-1,-1,-1,-1,-1,-1,-1,-1,-1,-1,-1,-1,-1,-1,-1,-1,-1,-1,-1,-1,-1,-1,-1,-1,-1,-1],"loss_changes":[1.0516698E0,2.4958282E0,1.3557386E0,2.965214E0,2.9380293E0,3.269781E0,3.2225292E0,2.4608836E0,5.75407E0,2.8252811E0,2.4227624E0,2.7433913E0,3.1806207E0,2.59075E0,3.7530332E0,1.9681213E0,3.0156946E0,2.5212016E0,4.056658E0,0E0,3.042756E0,1.4375149E0,6.831203E-1,2.6990988E0,3.4337924E0,2.6271205E0,3.3335543E0,7.602148E-1,3.282423E0,3.4011571E0,2.9916134E0,2.2847729E0,7.3928666E-1,2.063809E0,1.243026E0,0E0,3.0664854E0,6.9747436E-1,3.0641422E0,2.629814E-1,2.2111537E0,0E0,1.886908E0,0E0,0E0,3.0787394E0,1.7587683E0,1.9333444E0,2.9246974E-1,2.1533313E0,0E0,3.1938784E0,1.453352E0,0E0,0E0,3.168586E0,4.104944E0,1.8278127E0,0E0,3.7248936E0,3.978823E0,0E0,0E0,0E0,0E0,0E0,0E0,0E0,0E0,0E0,0E0,0E0,0E0,0E0,0E0,0E0,0E0,0E0,0E0,0E0,0E0,0E0,0E0,0E0,0E0,0E0,0E0,0E0,0E0,0E0,0E0,0E0,0E0,0E0,0E0,0E0,0E0,0E0,0E0,0E0,0E0,0E0,0E0,0E0,0E0],"parents":[2147483647,0,0,1,1,2,2,3,3,4,4,5,5,6,6,7,7,8,8,9,9,10,10,11,11,12,12,13,13,14,14,15,15,16,16,17,17,18,18,20,20,21,21,22,22,23,23,24,24,25,25,26,26,27,27,28,28,29,29,30,30,31,31,32,32,33,33,34,34,36,36,37,37,38,38,39,39,40,40,42,42,45,45,46,46,47,47,48,48,49,49,51,51,52,52,55,55,56,56,57,57,59,59,60,60],"right_children":[2,4,6,8,10,12,14,16,18,20,22,24,26,28,30,32,34,36,38,-1,40,42,44,46,48,50,52,54,56,58,60,62,64,66,68,-1,70,72,74,76,78,-1,80,-1,-1,82,84,86,88,90,-1,92,94,-1,-1,96,98,100,-1,102,104,-1,-1,-1,-1,-1,-1,-1,-1,-1,-1,-1,-1,-1,-1,-1,-1,-1,-1,-1,-1,-1,-1,-1,-1,-1,-1,-1,-1,-1,-1,-1,-1,-1,-1,-1,-1,-1,-1,-1,-1,-1,-1,-1,-1],"split_conditions":[1.0267325E-1,-1.2316E4,4.750859E-1,-1.6994E4,-9.265E3,3.1375882E-1,5.674345E-1,-2.17E4,3.6182057E-2,1.163975E5,2.0991617E5,2.4405972E5,2.2003061E5,9.9691805E4,5.852979E-1,8.6478606E-2,6.838248E-2,4.938198E-1,5.461626E-2,1.6755614E-1,1.9154495E5,2.6967584E5,1E0,1.3732284E-1,2.4630523E-1,7.9379406E5,4.025411E-1,-1.9591E4,3.4215656E-1,7.8715986E-1,7.8559333E-1,5.1511493E-2,1.564873E5,4.4494578E-1,4.0706873E-1,-2.9023737E-1,1E0,4.3435922E5,2.4658616E5,-1.2128E4,-1.0016E4,-7.0985936E-2,1E0,2.2659363E-2,-2.4440582E-1,4.9053984E5,1.6049817E5,9.3344525E-2,2.6325285E-1,1.5684323E5,-3.145209E-1,1E0,8.0047977E-1,1.4896242E-2,-2.1578811E-1,5.1289344E-1,1.5869269E5,-1.1153E4,1.2750956E-1,-2.0755E4,9.3797195E-1,1.3356254E-1,-7.649918E-2,3.6855346E-1,4.8906628E-2,-9.521159E-2,1.4111647E-1,-4.8644695E-2,-3.1053436E-1,-1.9480659E-1,2.577499E-1,-2.0608595E-1,5.489645E-2,-5.973754E-2,3.551804E-1,-9.2252046E-2,-3.7311885E-1,7.760827E-2,-2.6625896E-1,3.0743694E-1,-3.1280873E-4,3.3766858E-3,3.3134213E-1,-1.4271408E-1,9.642482E-3,-1.5301802E-2,-2.674092E-1,2.5263228E-2,2.406708E-1,1.2021477E-1,-9.8588146E-2,1.3236753E-2,3.7690282E-1,-1.8402663E-1,9.296957E-2,1.2806156E-1,-1.3553569E-1,3.0175367E-1,6.483209E-2,-3.0868337E-1,5.8997784E-2,8.2199484E-2,-1.1458607E-2,-1.1118505E-1,3.040276E-1],"split_indices":[4,0,3,0,0,3,3,0,4,1,1,1,1,1,3,4,4,3,5,0,1,2,6,4,3,2,5,0,4,4,5,4,1,3,5,0,12,2,2,0,0,0,12,0,0,2,2,3,3,2,0,6,5,0,0,3,1,0,0,0,4,0,0,0,0,0,0,0,0,0,0,0,0,0,0,0,0,0,0,0,0,0,0,0,0,0,0,0,0,0,0,0,0,0,0,0,0,0,0,0,0,0,0,0,0],"split_type":[0,0,0,0,0,0,0,0,0,0,0,0,0,0,0,0,0,0,0,0,0,0,0,0,0,0,0,0,0,0,0,0,0,0,0,0,0,0,0,0,0,0,0,0,0,0,0,0,0,0,0,0,0,0,0,0,0,0,0,0,0,0,0,0,0,0,0,0,0,0,0,0,0,0,0,0,0,0,0,0,0,0,0,0,0,0,0,0,0,0,0,0,0,0,0,0,0,0,0,0,0,0,0,0,0],"sum_hessian":[5.9244617E2,8.2667496E1,5.0977866E2,5.863369E1,2.4033806E1,2.3968779E2,2.7009085E2,3.7968666E1,2.0665024E1,1.2920673E1,1.1113132E1,1.6327434E2,7.641346E1,4.6554707E1,2.2353615E2,1.976252E1,1.8206144E1,5.6821694E0,1.4982854E1,1.507972E0,1.1412702E1,8.545142E0,2.5679896E0,1.4932988E2,1.3944452E1,6.2159363E1,1.4254099E1,4.1654506E0,4.2389256E1,1.0110662E1,2.1342548E2,1.6796925E1,2.9655964E0,1.1383645E1,6.822499E0,2.1757288E0,3.5064409E0,2.140294E0,1.284256E1,5.496399E0,5.9163027E0,1.8568639E0,6.6882787E0,1.0793997E0,1.48859E0,9.36337E0,1.399665E2,1.1760547E1,2.1839051E0,5.8140965E1,4.0183983E0,8.016183E0,6.237917E0,1.9340109E0,2.2314396E0,1.4517407E1,2.787185E1,8.118118E0,1.9925439E0,1.8318254E2,3.0242937E1,8.869889E0,7.9270344E0,1.635721E0,1.3298755E0,5.423389E0,5.960256E0,3.1939092E0,3.6285896E0,1.4922135E0,2.0142274E0,1.0851736E0,1.0551205E0,1.5393499E0,1.1303209E1,1.1751829E0,4.3212156E0,4.468358E0,1.4479444E0,3.8449438E0,2.8433352E0,5.404576E0,3.958794E0,6.1826935E0,1.3378381E2,4.215605E0,7.5449424E0,1.1516273E0,1.0322778E0,3.532869E0,5.4608093E1,5.1660104E0,2.850172E0,4.4946647E0,1.743252E0,6.650388E0,7.867019E0,1.0280192E1,1.7591658E1,7.0237737E0,1.0943449E0,5.298371E1,1.3019882E2,2.8964777E1,1.278161E0],"tree_param":{"num_deleted":"0","num_feature":"14","num_nodes":"105","size_leaf_vector":"1"}},{"base_weights":[-7.059881E-3,2.556728E-2,-6.760318E-2,1.7131286E-2,3.7734485E-1,-3.719394E-2,-5.1698947E-1,-1.1338245E-2,1.4005308E-1,8.1409705E-1,-4.4706726E-1,-1.149336E-1,1.4346516E-1,-9.2985654E-1,1.6888596E-1,1.2143717E-2,-3.2406032E-1,4.5525098E-1,8.937071E-3,2.1066889E-1,3.2199162E-1,4.9637962E-2,-2.2794935E-1,-1.8247756E-1,7.468107E-2,-2.933741E-1,2.4710721E-1,-4.8983116E-2,-3.043284E-1,-1.6591363E-1,6.75804E-1,1.5030985E-4,6.092114E-1,2.042648E-1,-4.203354E-1,-1.5900993E-3,8.238133E-1,-5.0584084E-1,1.0465345E-1,1.7007387E-1,-7.545252E-2,1.0727479E-1,-2.5747874E-1,2.1975558E-1,-4.7055668E-1,4.6605623E-1,-7.4781543E-1,6.490949E-1,2.129339E-2,2.7359748E-1,1.8197093E-2,2.9594393E-3,-1.998932E-1,2.981925E-1,-7.789524E-2,-8.569042E-3,-2.1051893E-1,1.9943997E-1,-9.531684E-2,3.608393E-1,-1.2613037E-1,1.7182717E-1,-2.85588E-1,-2.2084588E-1,6.0361963E-2,-1.505369E-1,1.0442325E-1,4.22704E-2,-1.0184515E-1,-2.3838715E-1,9.9549495E-2,2.6023576E-1,-2.6756123E-1,-6.98323E-2,3.193084E-1,-2.5340969E-2,-2.5646996E-1,2.4941882E-1,-6.0249038E-2,2.360008E-1,-6.0656134E-2],"categories":[],"categories_nodes":[],"categories_segments":[],"categories_sizes":[],"default_left":[0,0,0,0,0,0,0,0,0,0,0,0,0,0,0,0,0,0,0,0,0,0,0,0,0,0,0,0,0,0,0,0,0,0,0,0,0,0,0,0,0,0,0,0,0,0,0,0,0,0,0,0,0,0,0,0,0,0,0,0,0,0,0,0,0,0,0,0,0,0,0,0,0,0,0,0,0,0,0,0,0],"id":15,"left_children":[1,3,5,7,9,11,13,15,17,19,21,23,25,27,29,31,33,35,37,39,-1,-1,-1,41,43,45,47,-1,-1,-1,49,51,53,-1,55,57,59,61,63,-1,-1,65,67,69,71,73,75,77,79,-1,-1,-1,-1,-1,-1,-1,-1,-1,-1,-1,-1,-1,-1,-1,-1,-1,-1,-1,-1,-1,-1,-1,-1,-1,-1,-1,-1,-1,-1,-1,-1],"loss_changes":[1.1620733E0,1.1284386E0,2.7955685E0,1.3122419E0,3.5716853E0,2.741114E0,3.8318937E0,2.243785E0,2.9097252E0,7.4022293E-1,8.4043556E-1,1.7578675E0,2.7351272E0,3.6952114E-1,2.4680252E0,2.0384552E0,2.3508582E0,3.485413E0,2.5565999E0,6.530952E-1,0E0,0E0,0E0,2.2162278E0,2.9890394E0,4.3983274E0,4.350223E0,0E0,0E0,0E0,4.9853408E-1,1.819856E0,2.132054E0,0E0,2.1950095E0,2.3679981E0,5.907208E0,4.461133E0,3.693708E0,0E0,0E0,3.3153386E0,2.6710386E0,3.6169777E0,5.275009E0,2.3421636E0,4.7655392E-1,2.841031E0,5.601294E0,0E0,0E0,0E0,0E0,0E0,0E0,0E0,0E0,0E0,0E0,0E0,0E0,0E0,0E0,0E0,0E0,0E0,0E0,0E0,0E0,0E0,0E0,0E0,0E0,0E0,0E0,0E0,0E0,0E0,0E0,0E0,0E0],"parents":[2147483647,0,0,1,1,2,2,3,3,4,4,5,5,6,6,7,7,8,8,9,9,10,10,11,11,12,12,13,13,14,14,15,15,16,16,17,17,18,18,19,19,23,23,24,24,25,25,26,26,30,30,31,31,32,32,34,34,35,35,36,36,37,37,38,38,41,41,42,42,43,43,44,44,45,45,46,46,47,47,48,48],"right_children":[2,4,6,8,10,12,14,16,18,20,22,24,26,28,30,32,34,36,38,40,-1,-1,-1,42,44,46,48,-1,-1,-1,50,52,54,-1,56,58,60,62,64,-1,-1,66,68,70,72,74,76,78,80,-1,-1,-1,-1,-1,-1,-1,-1,-1,-1,-1,-1,-1,-1,-1,-1,-1,-1,-1,-1,-1,-1,-1,-1,-1,-1,-1,-1,-1,-1,-1,-1],"split_conditions":[5.2039635E-1,2.8666806E5,9.2338694E5,-1.0857E4,6.0012734E-1,1.9216181E5,8.3673435E-1,9.36723E-1,-9.763E3,5.816137E-1,-1.5756E4,-1.3065E4,5.9843737E-1,7.6807E-2,1E0,5.121575E-1,-2.4646E4,2.52736E-1,-9.265E3,3.057225E5,3.2199162E-1,4.9637962E-2,-2.2794935E-1,2.0852038E-1,1E0,-2.0208E4,6.95865E-1,-4.8983116E-2,-3.043284E-1,-1.6591363E-1,1E0,-1.1078E4,5.664164E5,2.042648E-1,1.938243E-1,2.4122696E-1,2.2171869E5,2.536178E-1,1.846834E5,1.7007387E-1,-7.545252E-2,5.6994185E-2,5.844712E-1,8.8127E4,-1.1875E4,-2.2581E4,8.948735E-2,-1.1412E4,2.0070045E5,2.7359748E-1,1.8197093E-2,2.9594393E-3,-1.998932E-1,2.981925E-1,-7.789524E-2,-8.569042E-3,-2.1051893E-1,1.9943997E-1,-9.531684E-2,3.608393E-1,-1.2613037E-1,1.7182717E-1,-2.85588E-1,-2.2084588E-1,6.0361963E-2,-1.505369E-1,1.0442325E-1,4.22704E-2,-1.0184515E-1,-2.3838715E-1,9.9549495E-2,2.6023576E-1,-2.6756123E-1,-6.98323E-2,3.193084E-1,-2.5340969E-2,-2.5646996E-1,2.4941882E-1,-6.0249038E-2,2.360008E-1,-6.0656134E-2],"split_indices":[4,1,2,0,5,1,4,3,0,3,0,0,4,3,6,4,0,4,0,1,0,0,0,3,9,0,4,0,0,0,9,0,2,0,4,5,1,5,2,0,0,3,4,1,0,0,5,0,1,0,0,0,0,0,0,0,0,0,0,0,0,0,0,0,0,0,0,0,0,0,0,0,0,0,0,0,0,0,0,0,0],"split_type":[0,0,0,0,0,0,0,0,0,0,0,0,0,0,0,0,0,0,0,0,0,0,0,0,0,0,0,0,0,0,0,0,0,0,0,0,0,0,0,0,0,0,0,0,0,0,0,0,0,0,0,0,0,0,0,0,0,0,0,0,0,0,0,0,0,0,0,0,0,0,0,0,0,0,0,0,0,0,0,0,0],"sum_hessian":[5.864105E2,3.814321E2,2.0497842E2,3.7352332E2,7.9087806E0,1.9300111E2,1.1977307E1,3.0401834E2,6.9504974E1,5.17808E0,2.7307007E0,1.351908E2,5.7810326E1,7.25462E0,4.7226872E0,2.836784E2,2.0339937E1,1.9692596E1,4.9812378E1,2.1006286E0,3.0774515E0,1.0822201E0,1.6484807E0,9.971003E1,3.5480762E1,1.0734597E1,4.707573E1,1.0120206E0,6.2425995E0,1.9106395E0,2.8120477E0,2.7907288E2,4.605536E0,1.2473657E0,1.9092571E1,9.237813E0,1.0454784E1,7.1380453E0,4.267433E1,1.0582902E0,1.0423384E0,2.0414045E1,7.929598E1,2.8495703E1,6.9850593E0,4.0091796E0,6.725417E0,1.6258434E1,3.0817297E1,1.6832143E0,1.1288335E0,2.7603452E2,3.038344E0,3.0922015E0,1.5133345E0,8.441448E0,1.0651122E1,2.6174536E0,6.620359E0,8.039388E0,2.4153965E0,2.005474E0,5.132571E0,3.7133448E0,3.8960987E1,5.477056E0,1.493699E1,1.34137745E1,6.588221E1,2.2292385E0,2.6266464E1,1.419162E0,5.565897E0,2.1310365E0,1.8781433E0,1.1834189E0,5.541998E0,1.3404987E1,2.8534472E0,6.3951406E0,2.4422155E1],"tree_param":{"num_deleted":"0","num_feature":"14","num_nodes":"81","size_leaf_vector":"1"}},{"base_weights":[-7.6437294E-3,-3.204079E-2,6.3033074E-2,2.5331752E-2,-1.1630939E-1,5.662416E-1,2.2393262E-2,1.4829552E-2,7.60986E-1,-1.4931606E-1,5.5489266E-1,8.166339E-1,-2.0805402E-1,-2.3135355E-1,1.1935607E-1,2.1872379E-2,-2.394782E-1,-2.1045243E-2,3.8626093E-1,-2.541344E-2,-3.1105042E-1,3.461048E-1,2.0572503E-1,3.763902E-1,2.6976624E-1,-6.504927E-1,-1.5954386E-2,4.1522518E-1,-1.7205428E-2,3.1086707E-2,-5.4992867E-1,-5.6169756E-2,8.5502017E-1,2.5817811E-2,-4.5366523E-1,2.939183E-1,-4.5878124E-1,-3.630845E-1,2.9785395E-1,-9.7718336E-2,-9.006134E-1,4.4702494E-1,-2.4553314E-1,1.9089305E-1,1.1310679E0,-1.1967366E-1,2.5438142E-1,-6.051135E-4,6.499724E-2,-2.572746E-1,2.1309117E-2,8.680591E-3,-9.9953465E-2,9.1694236E-2,3.193522E-1,1.7144282E-1,-7.757923E-2,-2.1043296E-1,-6.424101E-2,-2.388875E-1,9.262672E-2,1.1433874E-1,-2.5641328E-1,-1.551327E-1,1.6286753E-1,-3.2043558E-1,-3.6952913E-2,-3.0901792E-2,3.145866E-1,-1.6067642E-1,3.9863925E-2,-2.002643E-2,2.4275568E-1,1.3761449E-1,4.884137E-1,-1.5987395E-1,7.1027665E-3,1.552551E-1,-1.2415309E-1],"categories":[],"categories_nodes":[],"categories_segments":[],"categories_sizes":[],"default_left":[0,0,0,0,0,0,0,0,0,0,0,0,0,0,0,0,0,0,0,0,0,0,0,0,0,0,0,0,0,0,0,0,0,0,0,0,0,0,0,0,0,0,0,0,0,0,0,0,0,0,0,0,0,0,0,0,0,0,0,0,0,0,0,0,0,0,0,0,0,0,0,0,0,0,0,0,0,0,0],"id":16,"left_children":[1,3,5,7,9,11,13,15,17,19,21,23,-1,25,27,29,-1,-1,-1,31,33,-1,35,-1,37,39,41,43,45,47,49,51,53,55,57,-1,59,61,-1,63,65,67,69,71,73,75,77,-1,-1,-1,-1,-1,-1,-1,-1,-1,-1,-1,-1,-1,-1,-1,-1,-1,-1,-1,-1,-1,-1,-1,-1,-1,-1,-1,-1,-1,-1,-1,-1],"loss_changes":[1.0071645E0,2.1012285E0,3.053288E0,1.9899741E0,3.9814234E0,4.0872145E0,3.4662905E0,1.4857428E0,1.6771805E0,3.3690124E0,1.5314739E0,2.0018554E0,0E0,3.508901E0,4.1194973E0,1.3615522E0,0E0,0E0,0E0,2.6612995E0,3.519226E0,0E0,3.8239636E0,0E0,2.931822E0,1.738029E0,2.9555347E0,4.952066E0,1.9951192E0,1.5489541E0,8.442409E-1,2.2300775E0,5.6620836E-2,3.664696E0,2.8972502E0,0E0,1.3367889E0,1.6900167E0,0E0,1.6874874E0,1.0366988E0,3.1621366E0,2.106547E0,4.149046E0,1.7511816E0,3.0893404E0,3.6709754E0,0E0,0E0,0E0,0E0,0E0,0E0,0E0,0E0,0E0,0E0,0E0,0E0,0E0,0E0,0E0,0E0,0E0,0E0,0E0,0E0,0E0,0E0,0E0,0E0,0E0,0E0,0E0,0E0,0E0,0E0,0E0,0E0],"parents":[2147483647,0,0,1,1,2,2,3,3,4,4,5,5,6,6,7,7,8,8,9,9,10,10,11,11,13,13,14,14,15,15,19,19,20,20,22,22,24,24,25,25,26,26,27,27,28,28,29,29,30,30,31,31,32,32,33,33,34,34,36,36,37,37,39,39,40,40,41,41,42,42,43,43,44,44,45,45,46,46],"right_children":[2,4,6,8,10,12,14,16,18,20,22,24,-1,26,28,30,-1,-1,-1,32,34,-1,36,-1,38,40,42,44,46,48,50,52,54,56,58,-1,60,62,-1,64,66,68,70,72,74,76,78,-1,-1,-1,-1,-1,-1,-1,-1,-1,-1,-1,-1,-1,-1,-1,-1,-1,-1,-1,-1,-1,-1,-1,-1,-1,-1,-1,-1,-1,-1,-1,-1],"split_conditions":[2.0622273E5,1.6076533E5,2.0936483E5,1.602495E5,9.3797195E-1,1E0,5.079357E5,9.954806E-1,4.7715485E-1,4.456498E-1,9.583669E-1,5.965279E5,-2.0805402E-1,3.6432543E-1,6.8341956E5,7.3771494E5,-2.394782E-1,-2.1045243E-2,3.8626093E-1,9.447244E5,4.3235862E5,3.461048E-1,8.948735E-2,3.763902E-1,4.7715485E-1,2.2301683E5,2.1042421E-1,7.4775535E-1,7.522523E-1,5.5807825E5,1.5845947E5,8.057985E-1,5.737208E-1,3.1915447E-1,6.540189E5,2.939183E-1,-1.0857E4,1.6337782E-1,2.9785395E-1,2.2003061E5,1E0,1.1835158E-1,4.5682266E-1,6.3415875E5,-1.4428E4,2.257655E5,5.8381695E-1,-6.051135E-4,6.499724E-2,-2.572746E-1,2.1309117E-2,8.680591E-3,-9.9953465E-2,9.1694236E-2,3.193522E-1,1.7144282E-1,-7.757923E-2,-2.1043296E-1,-6.424101E-2,-2.388875E-1,9.262672E-2,1.1433874E-1,-2.5641328E-1,-1.551327E-1,1.6286753E-1,-3.2043558E-1,-3.6952913E-2,-3.0901792E-2,3.145866E-1,-1.6067642E-1,3.9863925E-2,-2.002643E-2,2.4275568E-1,1.3761449E-1,4.884137E-1,-1.5987395E-1,7.1027665E-3,1.552551E-1,-1.2415309E-1],"split_indices":[1,1,1,1,4,11,2,3,5,4,4,2,0,3,2,2,0,0,0,2,2,0,5,0,5,1,5,5,3,2,1,3,5,3,2,0,0,5,0,1,8,5,4,2,0,1,5,0,0,0,0,0,0,0,0,0,0,0,0,0,0,0,0,0,0,0,0,0,0,0,0,0,0,0,0,0,0,0,0],"split_type":[0,0,0,0,0,0,0,0,0,0,0,0,0,0,0,0,0,0,0,0,0,0,0,0,0,0,0,0,0,0,0,0,0,0,0,0,0,0,0,0,0,0,0,0,0,0,0,0,0,0,0,0,0,0,0,0,0,0,0,0,0,0,0,0,0,0,0,0,0,0,0,0,0,0,0,0,0,0,0],"sum_hessian":[5.819271E2,4.3300424E2,1.489229E2,2.5802954E2,1.749747E2,1.0162019E1,1.3876088E2,2.5540355E2,2.625983E0,1.6751463E2,7.46007E0,8.770518E0,1.3914999E0,3.798086E1,1.00780014E2,2.5417503E2,1.2285143E0,1.3545918E0,1.2713912E0,9.5505905E1,7.200873E1,1.8991357E0,5.5609345E0,4.151366E0,4.6191525E0,1.2207225E1,2.5773636E1,3.1181896E1,6.9598114E1,2.510747E2,3.1003277E0,9.31868E1,2.3191056E0,2.1661472E1,5.0347256E1,2.349693E0,3.2112412E0,2.7287626E0,1.8903898E0,4.236069E0,7.971156E0,8.229827E0,1.754381E1,2.4706118E1,6.47578E0,5.093861E1,1.8659506E1,2.1390549E2,3.716922E1,1.8183624E0,1.2819653E0,7.197081E1,2.1215984E1,1.3190281E0,1.0000776E0,7.0762315E0,1.458524E1,2.379958E1,2.6547676E1,2.2044227E0,1.0068184E0,1.174933E0,1.5538297E0,2.6765733E0,1.5594957E0,6.250531E0,1.7206252E0,4.7321105E0,3.497716E0,9.696246E0,7.847563E0,1.8068748E1,6.637369E0,3.569573E0,2.906207E0,1.2419331E1,3.851928E1,1.3549486E1,5.11002E0],"tree_param":{"num_deleted":"0","num_feature":"14","num_nodes":"79","size_leaf_vector":"1"}},{"base_weights":[-5.327394E-3,6.82991E-3,-1.3724901E-1,-4.4169106E-2,4.708802E-2,-2.0052277E-2,-4.5922294E-1,2.179043E-2,-1.6200069E-1,-5.7920236E-3,1.3608246E-1,-1.0758211E-1,5.644135E-1,-1.6206765E-1,-2.5870892E-1,-7.483717E-2,2.800587E-1,-6.7602843E-1,-7.165008E-2,-1.7784858E-1,6.717649E-2,4.0162677E-1,-6.5531493E-3,5.238003E-1,-1.7097488E-1,2.7256203E-1,4.526407E-2,-2.3694736E-1,1.4849581E-1,-3.0021084E-2,-2.9190677E-1,-5.187373E-1,4.1657063E-1,1.00346126E-1,-8.422781E-1,-2.073459E-2,-5.472444E-1,-3.1558353E-1,2.1085101E-1,3.0280113E-1,7.550876E-3,4.5165917E-1,-1.6406521E-1,6.034501E-1,-8.125992E-2,-1.0768566E-1,3.6927345E-1,-4.81629E-1,5.9137102E-2,6.924438E-2,-4.8338275E-2,-2.1173444E-1,4.864925E-1,-1.642657E-1,4.1508398E-4,2.6139867E-2,-2.639846E-1,1.5621498E-1,-1.0632421E-1,-2.8250068E-1,-5.063295E-2,-3.7756965E-2,5.9364498E-2,-2.4735633E-1,1.4757451E-1,-3.9014876E-2,-2.0168498E-1,-1.8031271E-1,1.5882596E-1,-2.70023E-1,1.3292508E-1,1.710698E-1,-1.919958E-2,-1.5104041E-2,1.6581279E-1,2.9140705E-1,-6.338053E-2,-3.0662367E-1,5.818929E-3,-6.457111E-2,-2.3408312E-1,1.02460794E-1,-6.1447114E-2,2.7518567E-1,-7.4171595E-2],"categories":[],"categories_nodes":[],"categories_segments":[],"categories_sizes":[],"default_left":[0,0,0,0,